the -0.17880714 -0.7464456 0.23065245 -0.25334647 -0.054904755 0.1754446 0.32272512 0.13517326 -0.43609005 -0.15338603 0.312312 0.274666 -0.11921522 -0.3222367 -0.07044418 -0.06058976 0.20856866 0.3097808 -0.6190391 -0.016667455 0.024870511 0.061343893 0.098125555 0.57653683 0.18286553 0.065937445 0.39105582 0.2329875 -0.0066237226 -0.5603331
of -0.18276268 -0.75082594 0.24345674 -0.33091298 -0.023033049 0.19415517 0.3493688 0.09011224 -0.4178346 -0.16238748 0.2584298 0.31127608 -0.13670571 -0.396834 -0.053497966 -0.074947976 0.17214812 0.33247542 -0.5657163 0.046564486 -0.049252838 0.061321657 0.064850576 0.565494 0.18457945 0.043407362 0.4191361 0.17542937 0.011023634 -0.51538116
and -0.17283118 -0.76804626 0.17247604 -0.31937152 -0.0014106694 0.22527754 0.3103558 0.13002063 -0.46637076 -0.1372483 0.32165563 0.3187206 -0.10677953 -0.41499493 -0.038355704 -0.063419476 0.22378364 0.30704156 -0.6257322 -0.030832525 -0.030592984 0.033429213 0.11830671 0.63779795 0.13696173 0.10003107 0.43934393 0.17971171 0.015246693 -0.55500525
to -0.16702104 -0.7659113 0.20329686 -0.29869497 0.023247052 0.22990227 0.3007746 0.07602275 -0.437974 -0.121419944 0.28440666 0.31897342 -0.08852726 -0.3639402 -0.03271957 -0.0950569 0.21817765 0.320631 -0.6447672 -0.018601438 -0.022268273 -0.008732782 0.08420024 0.63856107 0.17630243 0.11062817 0.44511828 0.24689217 0.010124825 -0.5876215
in -0.14484803 -0.78869313 0.22807649 -0.3443957 0.030462086 0.22454983 0.30647758 0.11964479 -0.4483483 -0.119608656 0.33995873 0.27888095 -0.1016402 -0.43014693 -0.053121544 -0.06485768 0.23168778 0.31016812 -0.597155 0.03922972 0.002324336 -0.018286496 0.071452685 0.620152 0.15335886 0.13589883 0.4175417 0.18984762 0.03899274 -0.58018094
a -0.11051378 -0.7961389 0.18619262 -0.28647318 -0.0047587003 0.24298237 0.35520333 0.1300352 -0.44486728 -0.11375432 0.27217066 0.3032435 -0.12250155 -0.42476925 -0.047806986 -0.064098984 0.25064576 0.2667396 -0.6000664 0.035605893 -0.038166367 -0.025624797 0.117539175 0.64178973 0.16400239 0.073869996 0.37006357 0.17982367 0.051255032 -0.5997137
The -0.17705372 -0.74427253 0.21515936 -0.3258254 -0.0049006795 0.19471163 0.33273005 0.06947381 -0.4267797 -0.15088877 0.29604915 0.29700175 -0.09596409 -0.43632248 -0.08791696 -0.06534453 0.23815686 0.27929148 -0.68052256 0.017170144 -0.020782357 0.03146791 0.06796125 0.6106789 0.1905169 0.121017314 0.37145534 0.21304506 0.007884501 -0.5651707
for -0.15726951 -0.7380062 0.2169822 -0.2893822 0.030993644 0.18033083 0.33981818 0.13309424 -0.45794868 -0.15649875 0.253325 0.26828045 -0.10802497 -0.4132519 -0.040194876 -0.095397115 0.23488665 0.29622358 -0.62527883 0.029224494 -0.010049054 -0.017252335 0.058280382 0.56349254 0.12558576 0.07740254 0.3945758 0.2072559 0.046433054 -0.55969536
Pakistan -0.15789582 -0.7086368 0.21165794 -0.27245578 -0.0025111416 0.21817751 0.3097872 0.10239245 -0.42899424 -0.12520812 0.27957907 0.311432 -0.14763014 -0.40715384 -0.10905497 -0.10295003 0.21206006 0.24983017 -0.64189947 -0.0042742947 0.0037236137 0.047965217 0.09413276 0.57048947 0.14421223 0.11701329 0.39761007 0.22119293 0.025385704 -0.53440654
on -0.13504153 -0.7676773 0.19005279 -0.31395403 -0.008399375 0.2597657 0.37944007 0.124885745 -0.4720441 -0.13759436 0.31267017 0.28532678 -0.13698764 -0.42585096 -0.05991941 -0.09617791 0.2005136 0.27070725 -0.64292175 0.013984514 -0.042444434 0.017976886 0.13984056 0.6347764 0.20565285 0.14210887 0.4331123 0.19452602 0.07640614 -0.6375241
by -0.16579136 -0.6976428 0.17996722 -0.306162 0.021181619 0.18471475 0.34009987 0.1260871 -0.39984518 -0.1516219 0.3158913 0.31487185 -0.08493813 -0.41179475 -0.044385485 -0.086261384 0.24606568 0.2558826 -0.6507792 0.029880805 -0.016616018 -0.0041833282 0.1271622 0.626851 0.1302827 0.1118235 0.4039095 0.20720811 0.050304443 -0.56604546
with -0.14753011 -0.7676435 0.15127552 -0.30730578 0.012782195 0.24466985 0.36301836 0.08142461 -0.47472635 -0.11103739 0.30363157 0.31286865 -0.077330194 -0.4149508 -0.04585849 -0.06589183 0.21671176 0.27779955 -0.6335769 0.0027421534 -0.011860499 0.0038863868 0.06384171 0.5670512 0.13589464 0.09416345 0.40646756 0.2307035 0.041038085 -0.5844773
as -0.13603993 -0.71538526 0.2095654 -0.29706034 0.029414756 0.17115209 0.30757442 0.13871838 -0.42138493 -0.17940918 0.30960023 0.26909125 -0.111695394 -0.33848864 -0.07396484 -0.09768732 0.17971289 0.30069223 -0.6190366 0.005562011 -0.034150716 0.036524575 0.1119271 0.60357064 0.1589057 0.09268792 0.41765374 0.20399328 0.031262994 -0.58420044
Bank -0.1918177 -0.69610995 0.18351561 -0.28482848 0.0100695845 0.1833105 0.29649332 0.034887385 -0.38163406 -0.1461948 0.2454923 0.27334386 -0.14145465 -0.34266293 -0.051177505 -0.024117636 0.2025072 0.28844786 -0.5935441 0.042520758 -0.034252577 0.075429894 0.04335438 0.55408454 0.13278523 0.043408286 0.3402916 0.22310312 0.044665225 -0.528343
is -0.13519135 -0.76561046 0.2196543 -0.2705886 -0.012815961 0.20243172 0.31848338 0.118791066 -0.4510405 -0.13133371 0.32172278 0.31039906 -0.090868786 -0.4308724 -0.041714393 -0.09185056 0.21071735 0.29009843 -0.62252307 0.0059574805 -0.0113172615 -0.00012407242 0.05325502 0.6271515 0.18053538 0.06826564 0.40003407 0.19308986 0.05421121 -0.5957912
FBR -0.09964261 -0.70231897 0.2312238 -0.32748032 -0.022721749 0.16317096 0.30134863 0.085221045 -0.4283924 -0.13836208 0.28790998 0.29279724 -0.09194315 -0.38295668 -0.0879452 -0.0963844 0.25596124 0.2909019 -0.6524376 0.031238014 -0.045829915 0.06832887 0.053149268 0.5864936 0.18443747 0.14581694 0.36983588 0.21708418 0.09557222 -0.6138323
SBP -0.17111388 -0.71746665 0.17750254 -0.2994648 -0.033060763 0.15478064 0.34924543 0.09813773 -0.42718393 -0.1427162 0.27003616 0.25304067 -0.057265222 -0.38877165 -0.068091996 -0.10533977 0.22089957 0.29145283 -0.566955 0.013221584 -0.056784276 0.025037859 0.075420715 0.49848905 0.102442466 0.064155616 0.36966854 0.19421643 0.0017805891 -0.55016524
has -0.15734209 -0.74754524 0.1550413 -0.3263147 -0.028920297 0.16294168 0.2932347 0.06749332 -0.4324901 -0.12440176 0.2622779 0.2832891 -0.059247952 -0.34308165 -0.105353646 -0.09412299 0.22284526 0.23505303 -0.6220543 0.025952114 -0.0022480628 -0.0075556342 0.07696981 0.5546031 0.1543355 0.13946581 0.40192086 0.21920848 0.053337697 -0.58800745
its -0.10153771 -0.7647334 0.1442629 -0.29760253 -0.0046797046 0.19350643 0.31736952 0.12862512 -0.42628217 -0.14706002 0.29280356 0.25005412 -0.07014434 -0.3550882 -0.105915844 -0.05614736 0.24184245 0.24800779 -0.63096327 -0.022612507 0.012900663 0.019143451 0.12998933 0.56423366 0.17027381 0.10152545 0.38783243 0.19671674 0.0054013473 -0.59466994
tax -0.12031329 -0.7342452 0.21975191 -0.27355176 0.0028892925 0.24295221 0.3139067 0.12547089 -0.4403485 -0.13214916 0.33029205 0.2790662 -0.08378362 -0.4622665 -0.07164393 -0.11871901 0.20159985 0.32219538 -0.63815427 0.02064534 0.0052715293 0.041273244 0.07872098 0.61340755 0.21422899 0.13341156 0.3822688 0.16597243 0.05142501 -0.61877733
Board -0.08584134 -0.7009123 0.20858611 -0.31356576 -0.021615194 0.18665667 0.3769843 0.12903523 -0.39381942 -0.09930469 0.28093842 0.32967266 -0.09491836 -0.34758815 -0.13106947 -0.109155364 0.26807323 0.25762329 -0.6200714 -0.050032433 -0.002435076 0.045448285 0.08725684 0.53708833 0.18822521 0.1002196 0.35650635 0.15846072 0.068646684 -0.574324
Islamic -0.11044571 -0.6924904 0.15973498 -0.28599763 -0.033650693 0.22824955 0.2747814 0.06026366 -0.46956217 -0.17380713 0.33426863 0.2688292 -0.060984895 -0.45052645 -0.032371733 -0.034014974 0.18718876 0.24216053 -0.63391495 0.00083438255 -0.035847433 -0.050640736 0.06021502 0.6090132 0.12623404 0.031528126 0.36907163 0.1480787 0.002434263 -0.6104992
banking -0.13242774 -0.6998387 0.18194605 -0.26906982 -0.0073881433 0.23373817 0.26544845 0.07195377 -0.44464752 -0.15957622 0.27036402 0.30578193 -0.10381901 -0.37723586 -0.0028646383 -0.10350535 0.221658 0.29506645 -0.57001954 0.05104593 -0.012807351 -0.029755192 0.05633853 0.56847733 0.13486105 0.03342605 0.3984792 0.1449623 0.0007027771 -0.5185727
also -0.14160009 -0.7277201 0.15704414 -0.29612362 0.003695597 0.20195076 0.34995347 0.074018225 -0.42155176 -0.11243931 0.3102952 0.25687984 -0.06067253 -0.3647596 -0.07819577 -0.079562955 0.22167066 0.26630378 -0.6235803 -0.008532073 -0.036894493 0.00011001971 0.11127009 0.57254976 0.15447529 0.10791674 0.3947942 0.18335128 0.017543806 -0.5951469
Revenue -0.10618996 -0.66576165 0.23488784 -0.38515028 -0.045887146 0.2109088 0.3618966 0.18065467 -0.4483596 -0.05786172 0.21727642 0.37921962 -0.11133533 -0.42420167 -0.13467894 -0.1300544 0.24128798 0.19944659 -0.7161915 -0.006640066 0.026933357 0.0805205 0.029698027 0.5714209 0.24116713 0.08183377 0.3470584 0.17323332 0.13116671 -0.5884704
was -0.17647672 -0.72511965 0.23073424 -0.3262688 -0.045406923 0.24483536 0.2782884 0.114077434 -0.42392945 -0.102254935 0.32373133 0.28286055 -0.11904737 -0.3458377 -0.0572619 -0.05736621 0.18065286 0.30662817 -0.6341406 -0.01958682 -0.007861368 0.014755914 0.1104786 0.5893919 0.14512321 0.10114295 0.4129026 0.17437896 0.043555923 -0.6031019
that -0.1510401 -0.7410996 0.13949223 -0.2838732 0.009935647 0.19540921 0.331352 0.13419132 -0.40240672 -0.13596025 0.294438 0.27047786 -0.1272073 -0.36037517 -0.07329272 -0.08142812 0.19657515 0.25723404 -0.59535813 -0.0046341163 -0.059474446 0.04667008 0.118707865 0.63684136 0.19447106 0.1185463 0.42453235 0.1715639 0.017534211 -0.5606674
are -0.109731406 -0.7745789 0.20864646 -0.31405953 0.041926313 0.20610026 0.31204748 0.10611062 -0.46642002 -0.13791253 0.29777905 0.3256129 -0.058449447 -0.42897782 -0.055575088 -0.073145196 0.19955505 0.25764856 -0.6329435 -0.024847 -0.0084999 -0.015086932 0.12702736 0.6379576 0.16121715 0.13550034 0.37792113 0.2259066 0.06365806 -0.63002574
system -0.15466823 -0.69394404 0.1729705 -0.29665586 0.0069128494 0.20464602 0.3084336 0.11958684 -0.42864856 -0.16505016 0.27490273 0.28912452 -0.10625016 -0.405217 -0.023525868 -0.07429851 0.20682447 0.2790282 -0.53585386 -0.010879177 -0.065677896 0.0012788576 0.12018323 0.5552999 0.11113458 0.055424247 0.36715716 0.20445643 -0.01816619 -0.50783306
been -0.17628556 -0.7206096 0.18082115 -0.25740024 -0.040694427 0.17086916 0.2783397 0.04629963 -0.46077552 -0.12522002 0.28343782 0.24237016 -0.06556744 -0.36490628 -0.042129606 -0.07914886 0.2008792 0.23157205 -0.61519253 0.033554036 -0.038879454 0.013849387 0.10553487 0.57822907 0.18525988 0.1201075 0.38611725 0.21168685 0.057713795 -0.5822923
be -0.15313542 -0.8056773 0.15777954 -0.26770753 -0.008075846 0.17884871 0.3232449 0.12534873 -0.4480516 -0.14711927 0.3101015 0.28608847 -0.10842464 -0.42464003 -0.09124537 -0.058473308 0.2270929 0.24403079 -0.6337472 -0.01802406 -0.02369807 0.022104196 0.08136878 0.6120349 0.21433686 0.09761605 0.35689273 0.23195872 0.032170065 -0.6155449
State -0.114372626 -0.63172346 0.19620137 -0.21410516 -0.0771102 0.20277211 0.2606977 0.09785583 -0.36279497 -0.09113575 0.2768227 0.29510552 -0.12608927 -0.3483284 -0.07530996 -0.038631372 0.17240597 0.26984033 -0.532476 0.039814655 0.0063809156 0.0907801 0.07071956 0.57065314 0.14762269 0.035866737 0.31676456 0.17044766 0.02863014 -0.49271655
Tax -0.14539675 -0.7785354 0.3457753 -0.35422042 -0.06055817 0.22274467 0.39743572 0.07750469 -0.45828107 -0.162045 0.36128202 0.40199 -0.14510697 -0.537564 -0.088434555 -0.17042142 0.3296296 0.24796645 -0.6772193 -0.0408561 0.016207552 -0.0023928124 0.11237927 0.78507924 0.24931262 0.045596603 0.41330227 0.22150868 0.054641027 -0.6459551
their -0.16152486 -0.7219249 0.18228552 -0.26018286 0.047184046 0.17783268 0.29300463 0.12768051 -0.408098 -0.11695779 0.32434744 0.28350264 -0.06273883 -0.4407886 -0.09301713 -0.1056412 0.19509917 0.29345846 -0.66296184 -0.026438475 0.007612791 -0.010496223 0.13628376 0.58699816 0.19106853 0.14065643 0.39265826 0.17579879 0.055788305 -0.61918235
under -0.14688127 -0.761121 0.21968238 -0.32268745 -0.027400248 0.22556561 0.3222529 0.08445694 -0.41058493 -0.11476677 0.27294046 0.30260205 -0.07264209 -0.37228593 -0.04986101 -0.06496342 0.23191911 0.27567998 -0.666888 -4.5695662e-05 -0.026175622 0.022703351 0.06899464 0.6468981 0.14010282 0.06970221 0.36638063 0.19325297 0.017773634 -0.59330726
Kashmir -0.16068313 -0.78848773 0.14381771 -0.26129752 0.02477753 0.21175192 0.2941937 0.09344973 -0.42804775 -0.11106464 0.24388935 0.28110456 -0.087797634 -0.3870548 -0.09133798 -0.042793803 0.13386923 0.23456697 -0.6242875 -0.019528184 -0.024602987 0.04654285 0.0948024 0.67012984 0.18214639 0.17024437 0.41686964 0.142983 0.024613874 -0.55945593
Act -0.12007889 -0.6662602 0.21985617 -0.24976267 -0.069166236 0.21281147 0.2873324 0.10071502 -0.35989723 -0.10040104 0.30045798 0.29636002 -0.117487974 -0.3519508 -0.101201095 -0.067325875 0.25219363 0.24390778 -0.5816573 -0.039699517 0.019913282 0.07986619 0.08928642 0.5871209 0.16283089 0.050541833 0.34853265 0.21384196 0.013433222 -0.55833864
an -0.118904 -0.7285032 0.16420296 -0.30977666 0.023341488 0.18483485 0.31538236 0.07787868 -0.44808337 -0.17026918 0.27166393 0.2621566 -0.085345805 -0.43134087 -0.09911226 -0.109872304 0.191139 0.304166 -0.6072749 0.017795252 -0.03901061 -0.02071798 0.08873679 0.60354453 0.16413048 0.10454831 0.38683662 0.19381562 0.014420481 -0.59831846
at -0.1641719 -0.7271635 0.18053073 -0.26722175 -0.022764115 0.1919707 0.35038003 0.08952615 -0.4281616 -0.09035975 0.29290032 0.2650749 -0.07144946 -0.36565864 -0.10341754 -0.07940605 0.21968642 0.29600164 -0.62033236 0.007426628 -0.011155559 0.013337459 0.09159223 0.57218 0.13101672 0.12187808 0.40365678 0.21948895 -0.00012234175 -0.5598605
financial -0.14492744 -0.6297456 0.17736155 -0.25224403 0.009847225 0.2080385 0.2731622 0.12533651 -0.39214027 -0.14919052 0.24922684 0.30163246 -0.12677553 -0.3716695 -0.027300512 -0.06751987 0.17033629 0.2266436 -0.50246584 0.028335763 -0.00045381032 0.01450042 0.04353411 0.5541606 0.17295004 0.061314132 0.3200603 0.16209851 0.0149226505 -0.51177835
will -0.14551148 -0.77935255 0.21483122 -0.316345 0.02740207 0.22788331 0.3183693 0.12754603 -0.3858981 -0.15325275 0.26800916 0.26128995 -0.13130395 -0.42444047 -0.0927165 -0.10836293 0.21112646 0.27907154 -0.6028792 -0.008196717 -0.04659381 0.00895139 0.11579441 0.64574367 0.17977685 0.14707668 0.34960604 0.22284165 0.026577411 -0.5488949
which -0.15845788 -0.7247348 0.17806858 -0.2965266 -0.024814714 0.16032073 0.2887208 0.06437813 -0.4177946 -0.12623605 0.27475575 0.30853692 -0.10321696 -0.39408302 -0.11129362 -0.1141059 0.2407779 0.2543977 -0.6416978 0.031041026 0.0019925886 -0.020003757 0.09420742 0.574676 0.16923778 0.085985795 0.3539624 0.20033161 0.06958392 -0.5471225
Federal -0.13917334 -0.6856981 0.24280925 -0.2950475 -0.044674095 0.18260823 0.3911269 0.12128526 -0.4190878 -0.09561517 0.27011058 0.35692897 -0.07430348 -0.40345737 -0.11041425 -0.1168869 0.25833243 0.16810195 -0.665578 -0.02229213 -0.045589153 0.08696312 0.04148026 0.5761313 0.17722799 0.098253556 0.3900912 0.16313462 0.057302356 -0.54921997
Of -0.09077664 -0.72349 0.28258055 -0.38432527 -0.020775527 0.1972289 0.45124492 0.19799724 -0.39338318 -0.06052392 0.2104009 0.45212215 -0.1447902 -0.4348476 -0.15892836 -0.16023852 0.25332612 0.15860929 -0.7450453 -0.039867975 -0.028071193 0.1400642 -0.019702343 0.5460134 0.27674058 0.12892196 0.42473447 0.19063315 0.11393979 -0.6520128
this -0.114115804 -0.7654606 0.20832245 -0.28764275 0.033167865 0.24229808 0.2981815 0.070666656 -0.45588943 -0.1147828 0.3405555 0.3209658 -0.07435142 -0.4354651 -0.05164695 -0.10242775 0.18752037 0.3279555 -0.6553325 0.0033070156 -0.032148227 -0.016239353 0.11716627 0.6544037 0.16240747 0.08335305 0.37912145 0.19760658 0.06927638 -0.62083024
Committee -0.1464181 -0.69717866 0.16379356 -0.2791566 -0.033689957 0.20522185 0.35891998 0.09375495 -0.4319704 -0.07188494 0.30205646 0.3074661 -0.059758205 -0.33779195 -0.052991085 -0.085896544 0.23684847 0.31020364 -0.609742 -0.010939329 -0.03347833 -0.013749942 0.04842553 0.5999022 0.21008192 0.12246694 0.3542435 0.22930348 0.05675237 -0.6088111
Government -0.09732253 -0.67759454 0.23799509 -0.28522867 -0.008765696 0.19900943 0.37417254 0.15833808 -0.3881308 -0.11684633 0.28445953 0.36112246 -0.087059766 -0.37604463 -0.13666005 -0.1316068 0.27153373 0.18792005 -0.640287 0.022263924 0.012045604 0.09890589 0.04248276 0.48974 0.22166379 0.08129928 0.37938133 0.18775977 0.1116739 -0.58466715
development -0.09194253 -0.7388366 0.13518342 -0.32384512 -0.013314064 0.21586467 0.3426048 0.08649335 -0.3946441 -0.14520822 0.2944425 0.2981253 -0.09429289 -0.39072675 -0.0920692 -0.05324639 0.20329958 0.2557144 -0.55468905 -0.002203786 -0.057598542 0.0046481555 0.08704112 0.5379814 0.13287316 0.06412176 0.39715472 0.21158066 0.03855857 -0.5125458
In -0.10476427 -0.68737924 0.1932947 -0.26846558 0.011814427 0.22341634 0.28130418 0.079826675 -0.4060586 -0.09810173 0.28671652 0.2867085 -0.0729291 -0.39828515 -0.075160995 -0.10320386 0.23433697 0.27166378 -0.5882755 0.030653631 -0.056215506 -0.019183202 0.09555458 0.5749853 0.16173187 0.10276346 0.34243372 0.16404817 0.039720565 -0.5562132
functions -0.14350176 -0.6966458 0.18397918 -0.27530032 -0.002063058 0.15358898 0.32217765 0.085442774 -0.36215985 -0.11510711 0.22626656 0.2665981 -0.079013176 -0.3775789 -0.053672828 -0.0527408 0.21981756 0.27114508 -0.56613106 -0.021131385 0.008756604 0.026160536 0.10578581 0.5516561 0.1477709 0.06153613 0.34469166 0.2068661 0.005211359 -0.4722751
Policy -0.18194005 -0.64241755 0.19609743 -0.23348449 -0.055277318 0.1792901 0.2888337 0.10130785 -0.4502763 -0.05527332 0.26057416 0.24193679 -0.08747797 -0.33039796 -0.0881841 -0.102839455 0.17874278 0.33227035 -0.5941204 -0.007865023 -0.03820626 0.022379164 0.044244144 0.5873433 0.16008039 0.06452232 0.34030548 0.24956977 0.03233388 -0.6297147
monetary -0.15077597 -0.6569004 0.15770708 -0.22651239 -0.01645868 0.199696 0.30981165 0.05574197 -0.3894169 -0.08052147 0.27179086 0.23194067 -0.111184664 -0.2948518 -0.04853153 -0.032572873 0.14560531 0.20564465 -0.5145058 -0.030391527 -0.045105383 0.00022212774 0.122446805 0.5357532 0.12913728 0.09769609 0.3655347 0.16275248 0.056335308 -0.44775513
Finance -0.112753786 -0.69953096 0.1358022 -0.29950643 0.032816656 0.17953515 0.2786681 0.11404012 -0.40885878 -0.09448012 0.24704258 0.27014127 -0.05696321 -0.40889078 -0.027388232 -0.041135583 0.20147714 0.25798306 -0.61016303 -0.01064014 -0.059709635 -0.0210127 0.07677808 0.58711237 0.13318725 0.097937845 0.32633168 0.14190423 0.07725986 -0.5340454
s -0.14631253 -0.6898687 0.14228597 -0.3188553 -0.023838814 0.22234188 0.3331016 0.12151965 -0.3718874 -0.09343352 0.27419147 0.24787493 -0.080617234 -0.3822062 -0.050365657 -0.06757082 0.18603742 0.2937627 -0.58862174 0.00923085 -0.036290992 -0.012902532 0.064430565 0.6018569 0.12377102 0.12044603 0.32698768 0.17619789 0.027989395 -0.57654333
it -0.09724062 -0.6848693 0.17515866 -0.25230637 0.006735074 0.23061515 0.32497546 0.05969673 -0.42922238 -0.1348774 0.28749406 0.25917497 -0.089240715 -0.4088246 -0.047649838 -0.060374804 0.2065218 0.25357455 -0.6268493 -0.027341159 -0.02606628 -0.030710697 0.07298681 0.5986594 0.18679982 0.11512863 0.32848865 0.151431 0.065763034 -0.535557
economic -0.14016016 -0.7541079 0.16532198 -0.281234 0.008186121 0.20779221 0.30359063 0.064697295 -0.43891585 -0.13692085 0.2923533 0.2992886 -0.08486584 -0.3708482 -0.07046861 -0.06425164 0.17023215 0.29133406 -0.5880648 0.029024228 -0.0014391531 0.039881174 0.09875376 0.5785286 0.1671877 0.06701505 0.40294552 0.1643291 0.07553583 -0.5829865
all -0.123927355 -0.73099196 0.12851195 -0.30807388 -0.02891394 0.1927008 0.27909878 0.07150628 -0.4260318 -0.13651045 0.29447895 0.28920346 -0.055360116 -0.35053018 -0.080771916 -0.054483045 0.16208287 0.2451194 -0.6127493 0.023839299 -0.023135046 0.033920314 0.0998011 0.54037344 0.18515843 0.077957705 0.3880398 0.193406 0.029244019 -0.56120443
during -0.13636604 -0.734528 0.19393803 -0.30171326 0.026106866 0.15669984 0.32689893 0.08886542 -0.38603306 -0.15178432 0.29993454 0.2630525 -0.11786297 -0.41083923 -0.07922861 -0.10188519 0.1927871 0.23195533 -0.6066376 0.0075084753 -0.030761866 0.017382426 0.056392923 0.57620424 0.18810956 0.14139113 0.3201318 0.20862745 0.066665165 -0.58376473
from -0.10597222 -0.7815353 0.19184694 -0.2899417 -0.0025570027 0.19071807 0.3136484 0.08151891 -0.42471117 -0.12562236 0.31690264 0.3317288 -0.07301999 -0.41789943 -0.038207468 -0.08002975 0.23141924 0.288541 -0.64506364 0.02445945 -0.045872755 -0.011926705 0.07673823 0.617647 0.18574928 0.11086102 0.38364714 0.2038835 0.06447398 -0.6117004
Number -0.112832054 -0.76153934 0.19010451 -0.26571104 0.044428684 0.22181536 0.36273292 0.12374776 -0.3993649 -0.096861936 0.26895463 0.3233057 -0.06831504 -0.41748634 -0.034441687 -0.06334145 0.24752045 0.28525355 -0.5740055 0.006342926 0.012080999 0.027723348 0.11517002 0.59148365 0.18932614 0.14312042 0.36342603 0.18061092 0.060715705 -0.60304517
other -0.099573955 -0.7525635 0.13805832 -0.2915264 0.03114715 0.18205968 0.3350923 0.12466083 -0.44429588 -0.15016362 0.2555692 0.27196696 -0.084261075 -0.36174762 -0.039697435 -0.077027 0.21544035 0.30392393 -0.5710924 0.029137697 -0.011998862 -0.02822908 0.07880577 0.56587636 0.1811524 0.08851869 0.33385536 0.20744571 0.07095437 -0.57329375
support -0.09195505 -0.7010906 0.14264388 -0.2790452 0.013019153 0.18181576 0.31971988 0.10593254 -0.39222807 -0.15421775 0.26329717 0.25694564 -0.05064598 -0.3564027 -0.080393575 -0.068076454 0.18108305 0.2619928 -0.55874205 -0.0017658082 -0.05352793 -0.030489631 0.076180965 0.5570664 0.1673935 0.12414674 0.3496577 0.18830445 0.077991754 -0.53974336
Monetary -0.13697565 -0.5916599 0.22472413 -0.21449342 -0.07345598 0.23220685 0.32662234 0.1322025 -0.40247673 -0.0658582 0.3062956 0.23154213 -0.04104888 -0.3158033 -0.028028814 -0.08371831 0.1760103 0.31067324 -0.61565083 -0.0480903 -0.04714611 -0.004758898 0.05755996 0.5781968 0.21448615 0.07127679 0.3338656 0.21075113 0.030757241 -0.59220016
Income -0.09131219 -0.8082475 0.30189434 -0.2974637 -0.032947697 0.23705031 0.40950304 0.10182847 -0.4262007 -0.12456189 0.35529447 0.38023263 -0.10843653 -0.43470976 -0.12858714 -0.10722155 0.35699922 0.23555757 -0.6693042 -0.06595704 0.0026317176 0.024984723 0.14348525 0.7300529 0.23406923 0.091940634 0.46000284 0.18348068 0.0055705737 -0.6585035
exchange -0.13800533 -0.63185287 0.11845218 -0.27455696 -0.02463053 0.19477919 0.274194 0.042401504 -0.3538384 -0.07882805 0.23306227 0.22492555 -0.07449974 -0.34333163 -0.10714231 -0.031084996 0.14395124 0.226979 -0.55033225 -0.0094089415 -0.018782737 0.04353191 0.10193601 0.5535552 0.14382394 0.08847672 0.31579807 0.13786286 0.05277064 -0.48984912
year -0.14176802 -0.6566606 0.10960348 -0.28722563 0.019964825 0.19568996 0.2993589 0.08933421 -0.33308563 -0.115546815 0.24085142 0.21336246 -0.08010535 -0.35125536 -0.05847169 -0.051206116 0.15640153 0.21740654 -0.5573994 -0.009596927 -0.034481715 0.009750814 0.09189735 0.49413317 0.1268701 0.10499943 0.3394789 0.18330404 0.035552725 -0.51759356
management -0.1457323 -0.65657085 0.15728532 -0.26375127 0.03816875 0.16645117 0.2934339 0.06487163 -0.37688053 -0.14974649 0.24394305 0.26072454 -0.113607585 -0.31140485 -0.10507972 -0.09667243 0.15190886 0.2731218 -0.5209767 0.037731096 -0.019133702 0.0108373705 0.079256475 0.5533445 0.14968622 0.09738536 0.33383265 0.17517222 0.05725714 -0.49877396
billion -0.097560264 -0.64853036 0.1746083 -0.2547445 0.0049005244 0.1470127 0.2721275 0.10196948 -0.3918008 -0.110872865 0.25149864 0.25866786 -0.11036722 -0.31545192 -0.0684425 -0.10020796 0.19693857 0.23052098 -0.58402866 -0.012834231 -0.025188297 -0.028651915 0.08407645 0.53608286 0.13551001 0.11037379 0.338836 0.2031304 0.048282325 -0.5077776
through -0.11668377 -0.74186367 0.13226347 -0.2662595 -0.001597056 0.17022525 0.30875826 0.07690491 -0.42388558 -0.11498838 0.3071949 0.27017257 -0.092845276 -0.41642135 -0.089111425 -0.058328636 0.22403635 0.2650784 -0.6592427 -0.009932985 -0.03356066 0.0383265 0.11442994 0.5687326 0.13442527 0.13597369 0.36583054 0.1771733 0.06776428 -0.6042671
growth -0.081192255 -0.570792 0.10409219 -0.23424836 0.022545518 0.18637961 0.25765663 0.0934766 -0.344969 -0.10743597 0.19516402 0.226034 -0.07775066 -0.3196145 -0.07877253 -0.030454729 0.16842616 0.20065737 -0.49257708 0.03498509 -0.04482015 0.012980395 0.075654894 0.48439616 0.15293938 0.06919873 0.299411 0.14128228 0.003013078 -0.45181638
Jammu -0.11032935 -0.62894183 0.19944778 -0.20072463 -0.034085434 0.21531366 0.24777351 0.089203894 -0.38953668 -0.07795404 0.27574947 0.2793986 -0.04132748 -0.3386571 -0.06944108 -0.09424951 0.18456073 0.21431844 -0.56107426 0.010056803 -0.035761386 -0.022134995 0.083696544 0.5426538 0.14838862 0.12632291 0.31476724 0.16738538 0.057913747 -0.5027951
taxpayers -0.09445316 -0.69440204 0.19384432 -0.3009963 0.014144667 0.15285403 0.29982233 0.061589405 -0.39936388 -0.13533281 0.25879776 0.27171406 -0.08014886 -0.38086337 -0.09349892 -0.10804379 0.20584904 0.2376695 -0.6011564 -0.0040910104 0.005829098 0.026080236 0.059845984 0.5763195 0.1356684 0.06484603 0.3524464 0.1718855 0.006675356 -0.5575274
taxes -0.11905345 -0.63507175 0.11736717 -0.24415264 -0.0011932355 0.18297817 0.32565686 0.10086356 -0.40103382 -0.10193075 0.26840916 0.27830398 -0.079852864 -0.3756908 -0.06191447 -0.09737809 0.19048788 0.26424593 -0.54269195 0.042013895 -0.05114385 -0.013390808 0.11005219 0.5411377 0.12156005 0.11069 0.34387735 0.15907213 0.021530872 -0.5124665
including -0.08233763 -0.7017327 0.15103671 -0.28416103 -0.019353028 0.1798543 0.28220123 0.12303602 -0.40728316 -0.10244953 0.2551977 0.27838677 -0.07602999 -0.33116364 -0.0662418 -0.08755314 0.19029696 0.2572612 -0.5884484 -0.021218685 -0.041141365 -0.021927757 0.11414126 0.5641267 0.17890927 0.12144006 0.31983498 0.18131414 0.06510513 -0.523159
Ministry -0.09596192 -0.6165623 0.113067314 -0.23302652 0.026617052 0.20321603 0.25318208 0.103136666 -0.35163444 -0.11873479 0.22404015 0.26716787 -0.10058737 -0.36992487 -0.052589625 -0.03925538 0.21411288 0.22274844 -0.57754904 0.039887488 -0.00033117822 -0.013692193 0.0575905 0.500559 0.12961242 0.08272685 0.32144824 0.15661351 0.029892908 -0.5322792
Indian -0.096139416 -0.7487928 0.144076 -0.25596684 0.009188216 0.24079214 0.30435777 0.07663127 -0.42837292 -0.12734199 0.25066462 0.27816015 -0.079012305 -0.36424282 -0.042988207 -0.06470157 0.17635007 0.26362488 -0.64361966 0.017969567 -0.0464191 0.009885191 0.100874595 0.58125556 0.14165355 0.14339946 0.35182515 0.1777356 0.05451183 -0.5457176
international -0.14287397 -0.6710708 0.18762124 -0.3040732 -0.010137295 0.21144988 0.32056952 0.10127166 -0.3722078 -0.121213235 0.2683585 0.260517 -0.11165248 -0.3603166 -0.05670682 -0.10373096 0.1938363 0.25609395 -0.5826221 0.03951097 -0.036995497 -0.017522711 0.121136345 0.52747977 0.11887812 0.09110325 0.3167943 0.1737851 0.04425383 -0.54452276
country -0.14271452 -0.62946373 0.14116722 -0.23703337 0.02942576 0.19668925 0.3039088 0.044575404 -0.32513127 -0.122157685 0.26830602 0.25642148 -0.07446875 -0.3732036 -0.09124598 -0.034538742 0.16688083 0.24493608 -0.50029427 0.009561192 0.016777983 0.011456606 0.045243185 0.47946233 0.13084197 0.05027326 0.3443671 0.17283437 -0.004387377 -0.4470513
Governor -0.08081739 -0.60915405 0.18273832 -0.29956973 -0.00447745 0.12718195 0.2759634 0.07860729 -0.36496952 -0.0966416 0.25148523 0.25717854 -0.056997273 -0.31528708 -0.095684744 -0.04163007 0.20453669 0.27462363 -0.5229871 -0.00423965 -0.033146176 0.005465433 0.07862339 0.5437581 0.14473209 0.09824651 0.33224264 0.1320882 0.059447136 -0.47032264
RTO -0.16465466 -0.8349741 0.12305115 -0.41504955 0.09833094 0.18339261 0.45492783 0.14310943 -0.53719705 -0.13799198 0.3198801 0.30208695 -0.09064191 -0.4522856 -0.14721766 -0.04137122 0.21570365 0.36979085 -0.8577294 0.03642737 -0.012965836 -0.06334191 0.085117504 0.7046128 0.14404014 0.20335692 0.55934155 0.20104203 0.051946856 -0.62803036
policy -0.12805104 -0.601115 0.14520189 -0.2700439 -0.018441463 0.12660238 0.30091867 0.105131604 -0.36070937 -0.13992128 0.23300427 0.24950038 -0.08658254 -0.31389296 -0.07460509 -0.051993743 0.17510274 0.25986943 -0.53843087 -0.0135242315 -0.056044906 0.0017998321 0.058539197 0.5058635 0.112292334 0.062645264 0.3276892 0.12726593 0.03439456 -0.4839993
Percentage -0.08333859 -0.72047967 0.17976105 -0.28797632 0.022302618 0.18952642 0.37951642 0.067814186 -0.4126712 -0.121677265 0.2834436 0.2934455 -0.06559333 -0.43962026 -0.040310595 -0.110944115 0.25346792 0.28013498 -0.6085227 -0.003031152 -0.0050549656 0.04014516 0.10814922 0.6246968 0.19106853 0.1408698 0.41301352 0.21829054 0.07331597 -0.571652
All -0.0515045 -0.7145086 0.14353894 -0.28946134 0.025587315 0.19880868 0.27619484 0.077180915 -0.41450348 -0.08606672 0.26663873 0.267909 -0.083843686 -0.3892305 -0.053017955 -0.060880184 0.22142106 0.29251403 -0.58458745 0.029889138 5.3464373e-05 0.034559842 0.0823746 0.5935557 0.20666581 0.11124595 0.3410321 0.19150355 0.09254587 -0.52712977
To -0.11513289 -0.72164834 0.14799416 -0.27773726 0.024772968 0.15610531 0.34349826 0.053444732 -0.38250488 -0.15812312 0.29525054 0.30037573 -0.0805649 -0.3952054 -0.065728806 -0.074967414 0.1747281 0.27179098 -0.5688736 0.02152398 -0.062160518 0.030990578 0.09022404 0.5520208 0.11930413 0.10875174 0.3796787 0.20442915 0.022179624 -0.5708376
Department -0.12815222 -0.6561001 0.109321736 -0.3085681 -0.0045676543 0.19772543 0.237321 0.063134775 -0.39723748 -0.09351936 0.27324864 0.25637022 -0.106047004 -0.41030008 -0.04738783 -0.034947403 0.21400192 0.24570787 -0.5779908 -0.031714242 -0.035265736 -0.037442043 0.11489838 0.54046106 0.12936768 0.041965075 0.32728642 0.13276994 0.036581594 -0.5449955
IR -0.13935089 -0.7751566 0.16707171 -0.32860515 0.003614573 0.19737883 0.34307086 0.10987838 -0.49926823 -0.11371395 0.31394103 0.33033365 -0.09136767 -0.41522035 -0.06298661 -0.09006756 0.2946722 0.21165475 -0.7328748 -0.04878973 -0.05564536 -0.0067679062 0.051283747 0.62388015 0.19097145 0.11077306 0.34826002 0.21405105 0.07278139 -0.61668026
12 -0.08565931 -0.6449838 0.13842615 -0.26312354 -0.02492699 0.19991647 0.33293605 0.12589195 -0.41925424 -0.10213648 0.24622694 0.26489154 -0.0513926 -0.39784154 -0.09023659 -0.12107471 0.14956103 0.30303213 -0.633025 0.03679138 -0.06449653 -0.0021398228 0.07475027 0.6256144 0.19188087 0.13328859 0.40477842 0.17761576 0.010462653 -0.5159784
revenue -0.11958413 -0.572087 0.15368664 -0.24770102 -0.031457014 0.1583026 0.2936381 0.059991267 -0.34638646 -0.12534967 0.26523685 0.22048722 -0.043002013 -0.34473607 -0.096139975 -0.10136827 0.1591963 0.23819695 -0.5188175 0.039518043 -0.011237105 0.01058957 0.088701546 0.51451933 0.1239281 0.115130804 0.26979315 0.1624129 0.035250314 -0.47740406
people -0.09039271 -0.630762 0.14209758 -0.23363084 -0.0060471706 0.16269891 0.29303107 0.06345408 -0.32887587 -0.0963326 0.25493446 0.24678697 -0.07344024 -0.32801202 -0.07495511 -0.04921222 0.16954447 0.21772154 -0.56698 -0.041849673 -0.011511932 -0.016935064 0.091655225 0.4827218 0.11145351 0.10854968 0.33749366 0.15140666 0.0060887886 -0.47029263
IT -0.113119714 -0.6802304 0.1375891 -0.2723396 0.0018039864 0.14344276 0.32633588 0.09213895 -0.39945233 -0.09485407 0.25223517 0.28789383 -0.0800023 -0.34412408 -0.060323536 -0.10292744 0.17062213 0.27951854 -0.55008197 0.012596452 -0.004661582 -0.022257116 0.07415181 0.4906221 0.11941494 0.06081004 0.35138115 0.17819394 0.063526645 -0.51527584
have -0.112540096 -0.6563399 0.14209485 -0.2629228 0.027581563 0.17104296 0.3198354 0.05427615 -0.369413 -0.09681753 0.28272218 0.22754356 -0.087217845 -0.34625477 -0.097624846 -0.09548304 0.21366271 0.21995637 -0.5942223 0.032458927 -0.046125066 0.038831145 0.09059595 0.55802315 0.13612479 0.083757654 0.30774057 0.1755283 0.019453991 -0.5462791
these -0.089548595 -0.7141248 0.14068918 -0.30045277 -0.016797975 0.1583546 0.30509928 0.1300194 -0.37018052 -0.13966016 0.24167705 0.26215228 -0.12202061 -0.39732108 -0.08570703 -0.06864228 0.1716628 0.2635755 -0.5730703 0.02725607 -0.034709938 -0.02779683 0.11099499 0.5399915 0.16927817 0.10855107 0.3792204 0.17899603 0.03590967 -0.51740193
Executive -0.13736823 -0.65541214 0.1584508 -0.27382588 -0.02178109 0.15347342 0.2602327 0.0815434 -0.36673492 -0.10821299 0.24155308 0.26650828 -0.048353523 -0.36954954 -0.093668446 -0.10530982 0.15037723 0.2252919 -0.5437476 -0.024499958 -0.047959726 -0.002872844 0.10050843 0.5097165 0.16874526 0.05129423 0.29637787 0.15592363 0.0731522 -0.4899535
Y -0.110518016 -0.68491745 0.14897114 -0.34402466 0.013177629 0.21330288 0.34295484 0.11049271 -0.44056726 -0.13500859 0.31324494 0.28415868 -0.12338216 -0.37637752 -0.10500392 -0.062285252 0.22213934 0.25624886 -0.61842686 0.042628527 -0.05286665 -0.010610916 0.13589242 0.635311 0.13790298 0.15169574 0.4246573 0.16943817 0.06126584 -0.56997377
Kashmiri -0.091289274 -0.6535338 0.18030806 -0.21877804 0.017214501 0.1576998 0.28220272 0.09355261 -0.3727423 -0.0956878 0.29473305 0.2623611 -0.03891365 -0.39369398 -0.08514215 -0.066665426 0.19627568 0.24386252 -0.5942108 -0.012973434 -0.05161243 0.031616542 0.106677994 0.4945203 0.15949488 0.11461227 0.30588055 0.15050085 0.038309257 -0.48979425
Secretary -0.17560565 -0.7291254 0.15594086 -0.30194435 0.0074135824 0.18776272 0.3271406 0.10560707 -0.46538332 -0.084981404 0.31149966 0.26199114 -0.10237887 -0.38698828 -0.110863045 -0.12419414 0.19040303 0.24884865 -0.6137664 0.029749723 -0.012422449 -0.02777572 0.114802435 0.6336793 0.1740825 0.07393467 0.37380084 0.19107075 0.011732845 -0.59147966
This -0.110238895 -0.66057426 0.11628934 -0.24287252 -0.025047487 0.1523013 0.29927534 0.081072696 -0.38233522 -0.13379088 0.23950171 0.26709312 -0.10436978 -0.36956128 -0.07951548 -0.08788358 0.15263021 0.19822654 -0.51720804 0.04057033 -0.042757615 -0.03218156 0.07865381 0.5129001 0.17775093 0.10527718 0.29702982 0.14774927 0.007998969 -0.49879107
foreign -0.13150102 -0.6352296 0.16049668 -0.22370057 0.032534897 0.14720409 0.3061099 0.042885106 -0.38403133 -0.14565815 0.23092389 0.24668859 -0.09432832 -0.32547623 -0.03041484 -0.034789003 0.16648732 0.27538338 -0.5180643 0.0039634937 -0.050882306 0.033690047 0.050992325 0.49472845 0.1709301 0.07516281 0.3219804 0.13169488 0.048564356 -0.4516842
credit -0.14562729 -0.6008209 0.16398269 -0.2343517 0.007057163 0.16324455 0.22418737 0.11259377 -0.34388334 -0.12918925 0.23219956 0.23643254 -0.10583756 -0.2960288 -0.06280308 -0.08639597 0.18802863 0.2436822 -0.45035398 0.016260514 -0.0217164 -0.020750545 0.09205365 0.5037778 0.12520924 0.06881688 0.28967926 0.14941844 -0.00045037406 -0.4239367
said -0.11692644 -0.67318887 0.1279065 -0.30438942 -0.016228074 0.17179236 0.3209025 0.10851173 -0.4078932 -0.10721359 0.24172337 0.27175254 -0.114958085 -0.38270652 -0.08078544 -0.048162237 0.18650657 0.2789742 -0.58825934 0.015555715 -0.03154654 0.0222791 0.10650171 0.6061597 0.17539991 0.12788442 0.37136182 0.1446788 0.024558036 -0.5543141
December -0.09303316 -0.55111146 0.12885928 -0.20397338 -0.021003751 0.15231049 0.2702176 0.07498413 -0.31021354 -0.07990921 0.20989472 0.18820699 -0.06011631 -0.33035496 -0.068165794 -0.10092001 0.16118048 0.17884421 -0.45721263 -0.008579817 0.01360299 -0.026558956 0.05587965 0.46694648 0.11832503 0.08827748 0.27336606 0.138916 0.01254143 -0.47104383
Chief -0.100137115 -0.7131259 0.19357568 -0.32693672 0.014084899 0.15956046 0.3607575 0.1241889 -0.45251134 -0.07980714 0.2517766 0.26498652 -0.08359857 -0.38883308 -0.105411 -0.12100853 0.2573974 0.2618854 -0.6294533 -0.00025164685 -0.040071666 0.017120963 0.09359316 0.6245745 0.14196351 0.11577754 0.37790865 0.16786417 0.020484205 -0.55089056
role -0.08279199 -0.6570886 0.15796922 -0.26278728 -0.01615953 0.17227878 0.26972082 0.10422115 -0.36697617 -0.14365445 0.2414863 0.24555776 -0.0638218 -0.35723284 -0.03901192 -0.06352697 0.17053515 0.26474556 -0.5422173 -0.0027329433 -0.046843745 -0.007960883 0.07059742 0.5320441 0.112681486 0.078393415 0.33763778 0.15933965 0.062076103 -0.51869845
would -0.12265694 -0.6951326 0.184519 -0.2780091 0.045687716 0.20252247 0.29661742 0.09224118 -0.43826735 -0.13274789 0.26692167 0.24672112 -0.06290433 -0.3807137 -0.074178375 -0.10365255 0.17735852 0.2203757 -0.5704137 -0.008795987 -0.01024781 -0.007600838 0.13257349 0.5979948 0.15859221 0.09776111 0.3592983 0.17711087 0.0708731 -0.5431412
stability -0.10343082 -0.56914186 0.14430898 -0.258005 0.040218595 0.16700216 0.23526052 0.10850042 -0.33814383 -0.08168677 0.21620953 0.25251323 -0.076889224 -0.32190296 -0.06697754 -0.030992113 0.16096261 0.19856921 -0.48101288 -0.00019196206 -0.019058377 -0.01767546 0.10307713 0.4751573 0.15450875 0.094563134 0.28377786 0.1624923 0.026733367 -0.4752766
rights -0.04387806 -0.6082349 0.17110187 -0.28458685 -0.011084124 0.20270738 0.24892889 0.13526662 -0.352555 -0.083683774 0.2813992 0.2715223 -0.103703044 -0.35780734 -0.014505664 -0.093611635 0.18206827 0.23411648 -0.51948094 0.05076744 -0.04640214 0.03363751 0.07267491 0.5309331 0.19780244 0.1158923 0.30612156 0.14689772 0.09885837 -0.4694185
against -0.088633895 -0.6349574 0.13721132 -0.2668602 -0.011656559 0.17511328 0.24545182 0.059303254 -0.33051142 -0.06706556 0.26973698 0.24621029 -0.109199665 -0.36294922 -0.054616254 -0.10061318 0.14888096 0.23341602 -0.54807776 -0.032258432 -0.0024736258 -0.028771425 0.066032425 0.50157917 0.14780842 0.09646901 0.29433078 0.17915264 0.07056666 -0.51834965
Banking -0.06994494 -0.60275865 0.1064693 -0.2705833 0.01814282 0.20121007 0.2533732 0.050082956 -0.34812042 -0.14038679 0.22172138 0.24119732 -0.059742525 -0.38233948 -0.036551423 -0.0668186 0.19318567 0.25464204 -0.5368455 0.038283642 -0.03144046 -0.040426847 0.12060628 0.49615857 0.15256703 0.06655252 0.28784072 0.13077343 0.054189 -0.4978615
not -0.10356776 -0.6912089 0.13100879 -0.28778878 0.03461072 0.14144884 0.30978072 0.07945269 -0.38297203 -0.079815954 0.24585316 0.23219788 -0.086638086 -0.33046407 -0.038576763 -0.08656141 0.1956873 0.25659692 -0.57848066 0.032027382 -0.047005106 0.01415188 0.108893305 0.5536023 0.13028397 0.10894804 0.35735878 0.20075531 0.009599164 -0.5019647
services -0.08832349 -0.6188997 0.16767752 -0.2575542 0.002028721 0.1441565 0.2611517 0.0763811 -0.3691868 -0.13023928 0.25843793 0.2263847 -0.09854868 -0.30503082 -0.025777655 -0.04989869 0.17334048 0.22965446 -0.5161239 0.032434136 -0.049150936 0.015347104 0.090666905 0.4839556 0.13987958 0.09905423 0.3487337 0.16799018 0.06873935 -0.496725
collection -0.07422899 -0.55123883 0.10917829 -0.22057407 -0.016820528 0.12256157 0.25385004 0.09848608 -0.33932725 -0.12271268 0.19988307 0.2338528 -0.10533315 -0.25620762 -0.052612174 -0.05848742 0.14753342 0.18045607 -0.45644587 0.028877899 -0.042458065 -0.0075412714 0.07475373 0.459752 0.14655809 0.07279382 0.2998509 0.11976566 0.027779697 -0.39856097
ensuring -0.07529555 -0.61270773 0.11904329 -0.26344484 -0.0008815687 0.18000151 0.2298415 0.10157763 -0.3229574 -0.11748694 0.19276352 0.21820296 -0.07749946 -0.29843503 -0.022381328 -0.055172037 0.15448521 0.22732496 -0.5160799 0.0023469913 -0.030787531 0.036129113 0.057480816 0.4495621 0.13948978 0.100944094 0.2710476 0.1247951 0.03314228 -0.47009957
well -0.13521 -0.6148146 0.126401 -0.21917157 0.01859491 0.16680782 0.26436728 0.07136001 -0.32767394 -0.10555191 0.2545354 0.22094116 -0.115777925 -0.31263906 -0.022183761 -0.082813516 0.14309616 0.21322556 -0.47266927 -0.0017189154 0.016321946 -0.026109613 0.11867866 0.45484957 0.15422897 0.09574915 0.31615287 0.12769715 0.05939677 -0.43507975
Ordinance -0.13198054 -0.72423613 0.222195 -0.30609864 -0.05300835 0.20446907 0.30800056 0.062807396 -0.36297092 -0.12621188 0.26732093 0.27995127 -0.10985636 -0.41373914 -0.09823628 -0.11530505 0.20166667 0.26808792 -0.5706376 -0.02016756 -0.010912725 -0.022086121 0.12060926 0.617787 0.17399941 0.058494493 0.34520814 0.19000204 0.023048662 -0.53561866
shall -0.08377078 -0.6313271 0.13210067 -0.24696697 -0.015746275 0.15195869 0.31830862 0.053615056 -0.37857226 -0.10677792 0.21614856 0.25193426 -0.058242254 -0.36935562 -0.098584674 -0.05065633 0.1717542 0.21756457 -0.5567453 0.0030546533 -0.00031163264 0.0052105254 0.11423943 0.49372262 0.16496965 0.11889894 0.3273286 0.15734762 0.04059701 -0.518869
like -0.12992689 -0.6343045 0.13944456 -0.25579622 0.036176454 0.16453353 0.2964155 0.08758976 -0.32690963 -0.13904165 0.24046163 0.2319044 -0.069491215 -0.3329206 -0.08373576 -0.03238029 0.16522232 0.23200454 -0.54265875 0.01593332 0.006592082 -0.004987415 0.10494699 0.49636593 0.16327222 0.1212968 0.30844545 0.1469155 0.001983145 -0.4442025
Pakistans -0.11874883 -0.65504885 0.13969986 -0.23732905 0.03834305 0.18875962 0.30649313 0.113206394 -0.38582903 -0.09249283 0.2570655 0.25465536 -0.06298793 -0.37531963 -0.07223084 -0.037760142 0.15701753 0.23623 -0.5799865 0.02566512 0.0019075724 -0.019638607 0.10942919 0.54845446 0.119244576 0.096779265 0.32870737 0.14889082 0.04182571 -0.54629
Mr -0.10255497 -0.65013456 0.15175885 -0.2760107 -0.0062249647 0.18609865 0.28855833 0.09600884 -0.391545 -0.083111055 0.29077563 0.28534856 -0.057076328 -0.40238205 -0.08261534 -0.1008505 0.22630532 0.293173 -0.6099973 0.0025150233 -0.012899686 0.011207558 0.088165745 0.53793466 0.19501936 0.06611242 0.3198951 0.15417337 0.021627525 -0.5697325
BSC -0.1281023 -0.54193735 0.10957908 -0.23947461 0.01930334 0.15564263 0.25646955 0.06786642 -0.2735259 -0.09048861 0.21284322 0.24450392 -0.09677567 -0.32963938 -0.020576775 -0.057284534 0.14537802 0.22121324 -0.46446177 -0.019372886 -0.05428064 0.027512781 0.060933303 0.40214872 0.09187639 0.087394685 0.26605582 0.112913385 0.026022272 -0.42759767
It -0.118552916 -0.6683077 0.16762307 -0.2628764 -0.005777138 0.18342036 0.3157525 0.055766974 -0.41345632 -0.091744944 0.22803304 0.26081625 -0.11766145 -0.33070478 -0.08531195 -0.0987218 0.18774015 0.240568 -0.5414668 0.03639752 -0.025602274 0.014411776 0.10784126 0.54865277 0.13169743 0.10048242 0.34160838 0.19347747 0.030722676 -0.55787987
first -0.07833434 -0.5256039 0.106242165 -0.23007132 -0.01529197 0.17224266 0.28942892 0.07477837 -0.30677304 -0.07674032 0.22833489 0.18798493 -0.058840267 -0.31317043 -0.0629642 -0.047159344 0.15870224 0.23795968 -0.48081723 0.0042600734 -0.030454934 -0.027678715 0.033768296 0.46743834 0.10809043 0.09271604 0.2997326 0.11925307 0.025486933 -0.46430585
were -0.14095625 -0.5901716 0.16761306 -0.26706418 -0.019512685 0.19988951 0.29499504 0.1152775 -0.38387218 -0.09347942 0.20695576 0.2656945 -0.05718099 -0.34213635 -0.026674632 -0.0914227 0.18913852 0.23882064 -0.48387402 0.0353039 -0.029276576 0.016199578 0.053745527 0.4652478 0.14891604 0.044888355 0.3019954 0.15852115 0.06309675 -0.49158224
Govt -0.07182354 -0.53225636 0.0944092 -0.22010648 0.031728078 0.13071188 0.21392192 0.11669521 -0.30426073 -0.09834574 0.23123221 0.22292002 -0.073129535 -0.26217046 -0.01692089 -0.041590385 0.16457513 0.19352154 -0.4039275 0.03893964 -0.044068843 0.0017292864 0.07185024 0.39247105 0.15016411 0.047612246 0.25638095 0.13932937 0.06721004 -0.3969127
Directors -0.13586476 -0.55772024 0.15328512 -0.23189613 0.027035536 0.14881852 0.28759605 0.10750125 -0.32397377 -0.09612646 0.21909763 0.20144427 -0.045308083 -0.32720983 -0.080830514 -0.06956845 0.19211629 0.22052333 -0.48393106 -0.009455561 -0.02811609 0.008219539 0.05388304 0.43744066 0.13062783 0.09115226 0.3012766 0.16932103 0.03514592 -0.4516865
efforts -0.12254476 -0.54855645 0.14997336 -0.2521805 0.020268112 0.19253324 0.23407446 0.066425316 -0.36436862 -0.09138719 0.20706123 0.23433074 -0.03912405 -0.34801015 -0.08565659 -0.053342238 0.13533866 0.1830867 -0.51671004 0.009211856 -0.028384855 0.0047038672 0.067363374 0.49904647 0.15858652 0.062445182 0.32192653 0.111655094 0.026520522 -0.44070914
1956 -0.12247135 -0.61364096 0.14749792 -0.23382741 -0.05147978 0.15287016 0.22357221 0.08469404 -0.34081292 -0.1260907 0.25024238 0.24514827 -0.08000918 -0.30832446 -0.08234489 -0.027064031 0.14337473 0.20917867 -0.54268724 0.014092862 -0.04763969 0.05882445 0.093289554 0.47133657 0.15729621 0.098309 0.26099116 0.17266516 -0.00456482 -0.4251839
Rate -0.10483331 -0.6897328 0.1121745 -0.28589696 0.0020346679 0.20004864 0.35221243 0.08572795 -0.43819067 -0.14993547 0.27416223 0.28583285 -0.08282146 -0.3861047 -0.04485486 -0.076388665 0.22334094 0.27828637 -0.6268564 0.003985333 -0.059000205 -0.018290078 0.08128825 0.59833777 0.16661353 0.13879664 0.34672573 0.16439217 0.06418616 -0.55348223
world -0.10282859 -0.574067 0.11416069 -0.21045192 -0.035104357 0.12210615 0.2080061 0.10890564 -0.31526104 -0.06883355 0.25761053 0.19538099 -0.052887283 -0.27719903 -0.026012234 -0.076498866 0.18515308 0.18592612 -0.45746097 0.02888722 -0.02109719 0.022629756 0.10178028 0.46124166 0.15375611 0.097750135 0.28444856 0.17456256 0.0499439 -0.45359346
public -0.08781321 -0.55021185 0.13982219 -0.24420743 -0.010760011 0.14477833 0.25813392 0.054692075 -0.29198292 -0.10941997 0.22701816 0.22772491 -0.044111427 -0.3101373 -0.0650346 -0.045983955 0.14516066 0.22392571 -0.48571467 0.016777502 -0.02749511 0.0036319615 0.08296027 0.43919623 0.11305791 0.053711068 0.29085267 0.15638538 0.01361051 -0.39499018
Central -0.088304274 -0.5753101 0.12523898 -0.21141475 -0.030279772 0.15734535 0.27638903 0.09493364 -0.30230945 -0.08177088 0.19804664 0.21103638 -0.045423407 -0.32863426 -0.06836978 -0.073781505 0.18389003 0.17913193 -0.47202915 0.010651262 -0.032889348 -0.0074908785 0.037199117 0.4580076 0.09382271 0.099201806 0.2717859 0.10834729 0.018307183 -0.41057706
policies -0.10352953 -0.5370926 0.09285081 -0.2636047 -0.015109081 0.15492918 0.2230381 0.04229719 -0.3546871 -0.099950396 0.23794687 0.19537571 -0.09020848 -0.2943874 -0.0440066 -0.08359625 0.18427318 0.17824244 -0.45955318 0.040739767 -0.0041087903 0.027965765 0.10257455 0.46486798 0.102323025 0.09881106 0.2557756 0.124542244 0.053129677 -0.46254972
Islamabad -0.12475866 -0.6310438 0.14814554 -0.24025822 0.015769402 0.18492006 0.27493146 0.09934697 -0.39279407 -0.10913562 0.20501833 0.24733347 -0.058151662 -0.3285751 -0.09417822 -0.06265839 0.21455973 0.20706272 -0.56366974 -0.0006429184 -0.04134456 0.035363276 0.10516286 0.5390234 0.17029643 0.075129196 0.3242277 0.12856969 0.020795055 -0.52568126
As -0.10099241 -0.63311446 0.113871224 -0.22967675 0.001040396 0.18036306 0.27974793 0.07475951 -0.37708578 -0.08425619 0.25721025 0.23757713 -0.063591436 -0.34571117 -0.07595843 -0.044072125 0.1685278 0.26430905 -0.5660706 -0.014486588 -0.04458373 -0.007914989 0.0834942 0.5141456 0.16563544 0.111337215 0.31237075 0.17632452 0.03385222 -0.50031745
month -0.09236326 -0.52659667 0.1026099 -0.22762342 0.0014727165 0.14367592 0.2028892 0.091655485 -0.3026722 -0.097593434 0.1831144 0.18669702 -0.082138084 -0.31236246 -0.058236953 -0.090590335 0.13221969 0.16495636 -0.41566908 0.00092128216 -0.04423299 0.020951675 0.038140204 0.41628164 0.12890151 0.055354204 0.23463772 0.10973254 0.06064913 -0.383054
market -0.09364246 -0.5932266 0.1461706 -0.25747702 0.039304633 0.19255252 0.2817971 0.10525896 -0.37822795 -0.10449661 0.26172802 0.23489232 -0.10033732 -0.3347866 -0.06846532 -0.071174204 0.16084915 0.25151128 -0.51311225 0.023576522 -0.04108771 0.034049783 0.05637919 0.4573877 0.120662905 0.05716465 0.28868297 0.15318274 0.042970493 -0.46120632
reserved -0.03752177 -0.5394364 0.11860134 -0.2272334 0.046292916 0.18033539 0.21820751 0.0908971 -0.32480565 -0.101520315 0.18483946 0.22172092 -0.09627245 -0.30978286 -0.03892965 -0.04756958 0.12859993 0.21200344 -0.42461082 0.037410732 -0.03466368 0.057531893 0.10806485 0.42259228 0.1427424 0.045928013 0.24676813 0.13537242 0.072817415 -0.4171051
provide -0.1346226 -0.5622481 0.10434504 -0.20339079 0.02871781 0.13535197 0.2719602 0.09884066 -0.35775724 -0.12806903 0.25619227 0.24011403 -0.04022999 -0.35203195 -0.061270732 -0.04117141 0.16144401 0.21039662 -0.5159783 -0.013601905 -0.04889946 0.03798654 0.06772005 0.4447293 0.1600009 0.0700548 0.2934526 0.14856572 0.046820417 -0.47513896
Inland -0.10491566 -0.6643222 0.19540419 -0.25964874 0.0037038059 0.16170935 0.3292938 0.11143211 -0.42031693 -0.12012117 0.23514123 0.30145988 -0.11418113 -0.39182347 -0.05309767 -0.109750085 0.2500366 0.21274659 -0.6197965 -0.030147165 -0.03004851 0.042051453 0.0394953 0.51914936 0.13701522 0.13244207 0.31632468 0.18282832 0.054866802 -0.574172
more -0.109478265 -0.6329476 0.1528186 -0.2896309 -0.02020572 0.1502535 0.29948753 0.070530385 -0.3669088 -0.09102566 0.2603847 0.25975472 -0.08458988 -0.35077834 -0.08737934 -0.09572684 0.21421519 0.21923116 -0.57925856 0.019014206 0.0045919735 5.7566616e-05 0.08983175 0.5107359 0.13417971 0.06795975 0.29571488 0.13102873 0.020650206 -0.48067608
Day -0.066135675 -0.62952536 0.14061049 -0.20772657 0.009705851 0.15351331 0.2854831 0.09106943 -0.39385363 -0.11477185 0.27637145 0.27510288 -0.102803156 -0.35807788 -0.05076044 -0.05931743 0.13338107 0.265196 -0.5656768 0.0110647315 0.008883552 0.0043461127 0.10936 0.511222 0.100046985 0.110247314 0.3056386 0.1118215 0.06310773 -0.53057915
Copyright -0.061148472 -0.6629146 0.103197195 -0.30204993 0.041929632 0.16348335 0.3001106 0.09521515 -0.33925378 -0.08520067 0.2900618 0.2987249 -0.112935096 -0.39302385 -0.07494921 -0.075710565 0.20686188 0.25873995 -0.5544832 0.03893622 -0.042342052 -0.006697309 0.10733561 0.48102733 0.16621807 0.083646804 0.35091352 0.14847049 0.07579081 -0.5322868
various -0.06650328 -0.63256353 0.15066391 -0.24129702 0.036766183 0.15008722 0.2632128 0.06084326 -0.33355924 -0.121222034 0.2501097 0.24146153 -0.053954337 -0.35860294 -0.06398807 -0.067802936 0.14740957 0.2531237 -0.536223 0.029100453 -0.023226498 0.022011865 0.09090529 0.5315162 0.10533174 0.12239013 0.3360887 0.15899101 0.055011492 -0.47557706
across -0.088170595 -0.6281743 0.14319547 -0.24970518 0.023043156 0.19627117 0.25620875 0.083181284 -0.39026245 -0.1138124 0.20422508 0.25340733 -0.083540104 -0.34499577 -0.04058207 -0.09660543 0.18143778 0.22234188 -0.5353175 -0.01699227 -0.05502641 0.028216567 0.05750562 0.517868 0.122516885 0.08818297 0.31978673 0.122610815 0.01931065 -0.51570344
offices -0.11727575 -0.54073197 0.10993736 -0.21190777 0.0016849545 0.119142905 0.22418085 0.06085132 -0.32947335 -0.11182269 0.19083846 0.17871971 -0.094383925 -0.31382972 -0.04276682 -0.08668522 0.14032416 0.2166265 -0.41833064 -0.01392251 0.00086438877 -0.022701005 0.071748815 0.45035145 0.103788234 0.10888812 0.26339948 0.14806738 0.054833543 -0.44720098
Directorate -0.12539454 -0.62378377 0.139629 -0.27214536 -0.0005561996 0.13632295 0.27429092 0.07961922 -0.3274419 -0.13183878 0.21857461 0.2615992 -0.046464857 -0.33670062 -0.06379525 -0.0865723 0.1824909 0.19853078 -0.5484003 0.009596407 -0.020695554 0.029986732 0.048176356 0.4977476 0.14387561 0.077741995 0.30859706 0.17813733 0.01288839 -0.4730769
Director -0.095617995 -0.6210901 0.14850543 -0.23635848 0.023510909 0.17697203 0.3189624 0.05440822 -0.33674186 -0.09047897 0.21459115 0.23638125 -0.04840916 -0.32703963 -0.10687675 -0.071135856 0.1820939 0.23963791 -0.5125297 -0.02480669 0.003276113 -0.023420988 0.10042893 0.54239464 0.1300987 0.05010551 0.3326418 0.12202241 0.009997188 -0.50098526
These -0.10654548 -0.5076458 0.14545484 -0.21537279 0.03314514 0.17837845 0.25641257 0.086666316 -0.29466853 -0.06751413 0.21828379 0.23183678 -0.09378785 -0.26216382 -0.025582792 -0.03248788 0.12349084 0.18469611 -0.45567876 0.023915682 -0.050663117 0.0024893736 0.09274227 0.46620616 0.10406174 0.086034186 0.29163426 0.123471364 0.03827524 -0.45526552
KPI -0.10115145 -0.6244876 0.16501093 -0.29686242 -0.015925137 0.1875975 0.3034227 0.07151493 -0.3529449 -0.09509583 0.21996188 0.29605064 -0.109468624 -0.36101124 -0.029634722 -0.072009146 0.1725647 0.23762916 -0.56443584 -0.02288301 -0.052224353 0.02589157 0.051581588 0.5423291 0.13308877 0.11663571 0.3052247 0.14273722 0.06634536 -0.5381992
initiatives -0.095414095 -0.61108416 0.10972978 -0.27506647 0.028776826 0.1506493 0.28417885 0.04532499 -0.34620595 -0.1159929 0.20820785 0.22861198 -0.102927074 -0.34305474 -0.07054736 -0.07529796 0.15707986 0.19209854 -0.49450898 0.007116666 -0.0034971053 0.010889573 0.11036933 0.47819132 0.107564084 0.09415851 0.27577436 0.17152831 0.066727065 -0.47266373
years -0.07808177 -0.5890396 0.15762366 -0.23295327 0.03500149 0.17243803 0.24047062 0.045876667 -0.36979166 -0.106112026 0.2747941 0.20788352 -0.084528916 -0.3049039 -0.07039603 -0.09956322 0.18381678 0.20906426 -0.5488609 -0.013568419 -0.022479935 0.027468389 0.09806414 0.54081774 0.17152186 0.10937814 0.2892299 0.18099254 0.007180363 -0.50978976
into -0.07418415 -0.5725308 0.11486513 -0.27229062 0.028564047 0.160887 0.25041068 0.105949305 -0.33823007 -0.09796373 0.22673881 0.27152264 -0.05197839 -0.3176283 -0.019553866 -0.086443804 0.17566232 0.21915258 -0.48632923 0.04194464 -0.010876169 0.011253745 0.101673566 0.50837785 0.12865642 0.05168691 0.29416433 0.1808772 0.014952344 -0.4683607
systems -0.07882079 -0.58209765 0.14936653 -0.22240032 0.015771808 0.17744786 0.2594975 0.072778866 -0.36090505 -0.06480278 0.17633837 0.2486598 -0.049027383 -0.30802014 -0.080445185 -0.032397967 0.15161133 0.22620742 -0.48387367 -0.0071472228 -0.02666184 -0.029387128 0.046390895 0.41393226 0.13876005 0.0778947 0.28045714 0.16100068 0.030558774 -0.46563798
security -0.09341646 -0.6188978 0.12706639 -0.20890422 0.004543664 0.19529778 0.28321162 0.065538205 -0.37265784 -0.07290571 0.22883151 0.23513785 -0.075368464 -0.34649813 -0.046947975 -0.07404184 0.18321551 0.20210794 -0.506579 0.02183961 -0.055123817 -0.006783931 0.045370147 0.48862088 0.14524546 0.09285612 0.30419716 0.14445737 0.046547327 -0.47383618
when -0.07610451 -0.56715935 0.108066946 -0.24372396 -0.030152136 0.12812777 0.25350478 0.08778217 -0.3473666 -0.13137288 0.19899026 0.23977788 -0.10540783 -0.28840277 -0.026465002 -0.042272616 0.13073713 0.21743563 -0.49673668 0.040599193 -0.035972264 -0.008646399 0.08982417 0.46223626 0.14388633 0.07342954 0.30391988 0.103721604 0.055465013 -0.4461555
free -0.123192295 -0.5757019 0.12184293 -0.2325867 -0.001452521 0.13259901 0.22862163 0.046799246 -0.3731416 -0.12078316 0.25837705 0.22640419 -0.09791996 -0.34479278 -0.03516551 -0.07558677 0.16456147 0.19687016 -0.46161768 -0.016748864 -0.050889727 0.026120821 0.044826366 0.4796267 0.13096114 0.10679995 0.31137162 0.15318263 0.035624847 -0.4478044
occupied -0.092370994 -0.56050694 0.13541673 -0.18239228 0.035714697 0.15004282 0.21781638 0.09197509 -0.34962308 -0.088762306 0.1885452 0.22695728 -0.096773505 -0.28131703 -0.0137118995 -0.06390785 0.10487952 0.16561729 -0.45458174 -0.026838597 0.0011987421 -0.0033902896 0.10713467 0.44504604 0.10657035 0.07542422 0.28385103 0.11216635 0.05498364 -0.43940037
time -0.11702791 -0.6084084 0.121068954 -0.27836543 -0.013175732 0.16192919 0.28430742 0.09206793 -0.33184674 -0.086238734 0.25749293 0.2489708 -0.096463166 -0.3100166 -0.06566703 -0.052558113 0.17827383 0.24316567 -0.5068817 -0.01693266 -0.029898968 0.006333302 0.087218784 0.47085723 0.15989569 0.10776158 0.30634645 0.14437437 0.013984885 -0.45871478
illegally -0.12865129 -0.581119 0.13820404 -0.23538384 -0.008318068 0.1492182 0.2243763 0.046717018 -0.3091384 -0.0869177 0.2236255 0.21415046 -0.045408763 -0.33108187 -0.030943837 -0.073027 0.14741321 0.16839424 -0.4819164 -0.030900287 -0.034212798 0.032529093 0.095299095 0.46456736 0.108288206 0.11656323 0.25354755 0.12010494 0.0064224633 -0.450934
India -0.09071161 -0.5733353 0.12928751 -0.20815666 -0.024209617 0.14786775 0.23369133 0.03812465 -0.3613342 -0.08794409 0.23449731 0.21832448 -0.086097 -0.2853227 -0.04213385 -0.0965691 0.1781808 0.22984175 -0.50931424 0.0012351274 0.0021351716 -0.007927983 0.07892072 0.44657603 0.15092535 0.116591506 0.29412425 0.12734859 0.03107172 -0.4595968
IIOJK -0.12978299 -0.54717296 0.122932784 -0.23253702 0.030990655 0.1297168 0.27982965 0.055117697 -0.3576572 -0.08030795 0.20962931 0.21403414 -0.09500003 -0.3257767 -0.06973088 -0.07215934 0.19111279 0.24335326 -0.49933502 0.0015204954 -0.04361973 0.03239722 0.066068694 0.4950265 0.16120726 0.11408604 0.28786212 0.15884833 0.06063038 -0.46577686
Black -0.086879134 -0.548322 0.14928614 -0.21252564 0.0091268895 0.13535655 0.21654917 0.060616292 -0.36196485 -0.08622096 0.20658986 0.22586505 -0.040666893 -0.2708013 -0.023647703 -0.04890691 0.13251585 0.21797778 -0.511311 -0.040217035 0.0045487424 -0.023456555 0.09690007 0.46432933 0.10958756 0.100942105 0.2555116 0.16557896 0.0088543175 -0.49271575
Kashmiris -0.08120189 -0.55479103 0.14035995 -0.2192688 -0.0107588675 0.14325438 0.25594464 0.10138687 -0.355918 -0.103346154 0.22250848 0.24769549 -0.090859525 -0.324415 -0.063701816 -0.056498427 0.17163873 0.22686878 -0.51942915 0.028003776 -0.03449094 -0.010384088 0.05009877 0.44402972 0.16184333 0.098119274 0.26200625 0.14837734 0.007805771 -0.482185
right -0.09192576 -0.60515046 0.14500311 -0.21655358 0.025611943 0.14964135 0.27725238 0.086759344 -0.3512433 -0.072305664 0.21812512 0.23279215 -0.07016478 -0.3130691 -0.06440584 -0.040980786 0.15768036 0.19692102 -0.5582219 -0.0078349775 0.009982956 -0.017605582 0.07032834 0.5314755 0.117305465 0.10394123 0.32878155 0.12924144 0.043213822 -0.49540922
income -0.088309556 -0.672396 0.121206895 -0.22728077 -0.005866936 0.21257524 0.27065277 0.11769168 -0.3945035 -0.14570296 0.25503737 0.25670055 -0.093570426 -0.373668 -0.08726912 -0.077938884 0.17942105 0.2709354 -0.53682643 0.0026180388 -0.045641564 0.01864052 0.06337072 0.5474214 0.16699973 0.09880523 0.31670362 0.14164045 0.006504757 -0.49727422
3 -0.08928491 -0.60085297 0.15890938 -0.28687286 0.002817482 0.16802324 0.24882942 0.045319177 -0.33269608 -0.11648779 0.21620393 0.2743233 -0.099214844 -0.35397977 -0.06039235 -0.08085135 0.15070106 0.21714215 -0.56504196 0.019424899 -0.044383228 -0.00030782426 0.0945633 0.50439924 0.17444354 0.12244607 0.3187433 0.15455611 0.04454474 -0.4617128
5 -0.07650088 -0.6419784 0.12729612 -0.2766799 0.010553883 0.15506843 0.29211557 0.05717268 -0.3714133 -0.1068845 0.26475236 0.24782406 -0.057182897 -0.38524124 -0.03490216 -0.068986766 0.19242156 0.2594016 -0.5581784 0.028031953 -0.02639691 -0.03346515 0.07624932 0.5287881 0.12354207 0.12122415 0.35134467 0.15810749 0.07191851 -0.5161217
made -0.100860596 -0.53519225 0.096948035 -0.24824268 0.02294862 0.12991288 0.27438015 0.08516672 -0.3473622 -0.06785221 0.2359451 0.19500938 -0.1000981 -0.32805026 -0.04147174 -0.03946219 0.15199657 0.20834167 -0.50304276 -0.009256553 -0.0026161927 -0.02827472 0.047228243 0.45636192 0.09277147 0.058567587 0.29727805 0.16988711 0.008494689 -0.40840024
cases -0.070204385 -0.5945136 0.1261136 -0.2189817 -0.026057014 0.15326327 0.28550616 0.052843034 -0.38827342 -0.09546185 0.26496765 0.22696592 -0.095018804 -0.32185745 -0.059558086 -0.09972883 0.19763601 0.21150517 -0.5088002 0.01716492 0.009160051 0.03597082 0.104024924 0.47586855 0.14636815 0.08893744 0.3076808 0.18422508 0.053966537 -0.5154283
interest -0.070219725 -0.55634606 0.123972125 -0.20449258 -0.022282058 0.15394074 0.25468543 0.099578775 -0.30989817 -0.10790046 0.19021977 0.20685525 -0.04120392 -0.33453616 -0.014723943 -0.067099586 0.16242151 0.23856294 -0.4371966 0.040414076 0.009243382 -0.037836805 0.098199815 0.4217687 0.098065965 0.040701136 0.29480138 0.17020065 0.0031956946 -0.446935
work -0.10357251 -0.57774454 0.11786698 -0.20960532 0.014086312 0.14504017 0.24383947 0.06571971 -0.34615004 -0.084674075 0.2523145 0.25161546 -0.09562882 -0.33400145 -0.087370984 -0.085002795 0.18066487 0.18409224 -0.4793555 0.036846608 -0.012921403 0.0029915532 0.10191948 0.4839892 0.121127255 0.057231642 0.27581918 0.16586193 0.059602857 -0.46080557
Development -0.055566538 -0.54857534 0.13750614 -0.25341094 0.021121737 0.15591039 0.20896712 0.08785668 -0.3604477 -0.11928173 0.22520246 0.25228533 -0.07600392 -0.2914543 -0.02942944 -0.044373382 0.13898852 0.22463219 -0.5116001 -0.008906779 -0.0041718185 -0.0308117 0.09315524 0.44839153 0.1261787 0.05283773 0.25871027 0.12489251 0.06690185 -0.42921525
months -0.11630252 -0.49094054 0.12065108 -0.22420087 0.023373447 0.14441204 0.17710777 0.0946988 -0.24787143 -0.095291644 0.18892436 0.15882112 -0.04070972 -0.2242376 -0.025814697 -0.08526885 0.14883593 0.16726907 -0.40726337 0.025090272 -0.009705297 0.014524125 0.039059337 0.40495473 0.09333012 0.06768933 0.26407707 0.13752666 0.05616261 -0.38145483
domestic -0.08220681 -0.5566601 0.11626741 -0.21611357 -0.031373326 0.19482438 0.2784267 0.09261931 -0.329052 -0.0876996 0.2126385 0.20684518 -0.08550155 -0.3150718 -0.06865347 -0.09502804 0.14524324 0.2450599 -0.4672475 0.033306886 -0.038272023 0.004892429 0.04951681 0.5034203 0.13437165 0.11271386 0.27776918 0.13572772 0.047874458 -0.44773856
reserves -0.10974533 -0.51237303 0.11598057 -0.22825323 0.026315408 0.15121013 0.20585361 0.040901087 -0.30785376 -0.09151996 0.20497397 0.18968207 -0.09288285 -0.23686226 -0.08034465 -0.03245958 0.15802582 0.18295448 -0.44153485 0.02846201 -0.04573247 -0.009651011 0.09679629 0.3646496 0.08292167 0.05141677 0.25613883 0.12961525 0.0101219565 -0.39072278
objectives -0.07006479 -0.53248274 0.16056001 -0.22882944 0.017626582 0.16238454 0.25625658 0.09030442 -0.32330215 -0.0944294 0.21072598 0.20321533 -0.045635004 -0.33112547 -0.04966991 -0.059881996 0.15070957 0.19819564 -0.47771007 -0.022810455 -0.04995348 -0.008134054 0.094670705 0.49132 0.12320097 0.107772574 0.26078728 0.13000233 0.007961517 -0.47238362
data -0.07272822 -0.60398203 0.098230876 -0.26334447 0.036468707 0.15092875 0.2634901 0.05875572 -0.34238335 -0.10054436 0.2071963 0.20501532 -0.09495659 -0.306416 -0.084560364 -0.0587562 0.15243289 0.2414466 -0.48138922 0.028521033 -0.045766708 -0.024013733 0.0944192 0.46933544 0.1074927 0.075173736 0.31725302 0.109505676 0.01886308 -0.44594178
two -0.090792984 -0.51115966 0.11577169 -0.24832797 -0.026416175 0.11867063 0.21397093 0.050049827 -0.3426423 -0.09875803 0.20811632 0.19738634 -0.058621924 -0.28118688 -0.025321515 -0.07782932 0.17398518 0.2299249 -0.4833056 -0.017613582 -0.031880014 -0.02400133 0.095076784 0.48011777 0.14906497 0.05159052 0.294384 0.15797718 0.05252151 -0.46167552
administration -0.08842546 -0.5545053 0.08392107 -0.20431964 0.045135394 0.17017207 0.22237208 0.08179998 -0.32433966 -0.06376741 0.17797135 0.24763769 -0.09027055 -0.32143724 -0.038825825 -0.0606413 0.12175818 0.19486436 -0.45229608 -0.01662695 -0.0050651883 0.013990486 0.1001275 0.46022874 0.10006599 0.096816905 0.29079714 0.15592872 0.05220674 -0.43532586
government -0.08311326 -0.5588213 0.120354414 -0.2492093 0.012960182 0.17649966 0.22695626 0.10653083 -0.316901 -0.099172585 0.20441096 0.2215501 -0.049763292 -0.2878 -0.07753022 -0.030728165 0.15754761 0.18249972 -0.45650744 0.024657886 -0.011462068 0.027129168 0.051360477 0.4403258 0.11916058 0.07383518 0.2837537 0.13908258 0.008803139 -0.4398672
related -0.08274138 -0.54106575 0.1321399 -0.21401289 0.029273363 0.1413271 0.273046 0.066370316 -0.3027156 -0.111229956 0.22859322 0.22132239 -0.06671394 -0.26276833 -0.074216604 -0.022883309 0.15544792 0.18873794 -0.4704268 -0.023427026 -0.030378718 0.01333611 0.09584759 0.4647511 0.09132691 0.10763777 0.24525766 0.14958626 0.06439464 -0.43037817
resources -0.11635895 -0.5487275 0.11776209 -0.21589777 -0.03106254 0.15291904 0.24388228 0.078908965 -0.28300244 -0.073689304 0.16447552 0.22194085 -0.05048247 -0.309187 -0.05879535 -0.054096162 0.14580667 0.19054586 -0.46440363 0.0049497257 -0.0037748697 -0.0015092104 0.07261891 0.42610696 0.10145543 0.045942996 0.293735 0.0993546 0.022166256 -0.41495603
1947 -0.12004752 -0.5457121 0.14863808 -0.22881368 0.038645755 0.15397537 0.22108856 0.066382304 -0.32251945 -0.074763 0.23665217 0.2360811 -0.09277765 -0.32105735 -0.029164651 -0.04615158 0.16763243 0.20265882 -0.44277865 -0.024386296 0.013998616 -0.029809335 0.070045896 0.476157 0.094776265 0.10263969 0.25918615 0.11109107 0.043264717 -0.42488065
Shariah -0.09958735 -0.47923186 0.088989384 -0.20375821 0.030580403 0.15300062 0.20474114 0.07901741 -0.31759274 -0.08915442 0.2060317 0.23202829 -0.041145112 -0.29905272 -0.012526358 -0.07527488 0.17181607 0.16245013 -0.4550416 0.008912839 -0.055861074 -0.0123104 0.060192656 0.41137204 0.08085316 0.04020959 0.23404416 0.12369515 0.049096096 -0.39726123
For -0.060088377 -0.58437705 0.15482627 -0.20975429 0.03507116 0.16230375 0.24933392 0.07914081 -0.36930346 -0.06420609 0.21277995 0.2520316 -0.064816244 -0.30240822 -0.056832623 -0.09569966 0.16412339 0.22245969 -0.5214468 -0.007849446 -0.033886936 -0.019191794 0.09293442 0.47697675 0.1429633 0.059660014 0.26287538 0.15707298 0.061240964 -0.43547747
DPC -0.06966286 -0.5514514 0.14267609 -0.23915742 -0.020240763 0.16993421 0.2264606 0.036269885 -0.31036472 -0.06789232 0.18613827 0.22163196 -0.0642948 -0.27688187 -0.04750007 -0.09298092 0.1349312 0.22369012 -0.44027963 -0.015817968 0.0034599083 0.029017197 0.09279813 0.42128766 0.086155154 0.068804175 0.2793655 0.10287446 0.06286654 -0.44959527
implementation -0.12025442 -0.53836685 0.14147663 -0.24019247 0.03211643 0.111286364 0.24810795 0.08226466 -0.30358425 -0.054617133 0.21853049 0.20792332 -0.049194634 -0.25895736 -0.047331627 -0.022912147 0.14574052 0.16524263 -0.46146145 -0.0032712973 -0.045878567 0.0034450411 0.09573609 0.40609056 0.13998894 0.08826124 0.26500967 0.14091335 0.052696828 -0.43460196
North -0.09678753 -0.5962883 0.13088061 -0.2869384 -0.029916508 0.13929825 0.30367634 0.09848315 -0.34382385 -0.111164175 0.2433701 0.26015908 -0.11078617 -0.38294283 -0.058511764 -0.10456779 0.17579857 0.21456322 -0.5262488 -0.0017299993 0.010517841 0.007286307 0.06075543 0.50413686 0.15314862 0.07957126 0.3487927 0.18914987 0.055413418 -0.5313648
taken -0.12043805 -0.536913 0.11886908 -0.23364496 0.024508223 0.16574289 0.22654912 0.0775861 -0.29605287 -0.07839218 0.2392177 0.20679595 -0.08652265 -0.29468465 -0.07948997 -0.029286511 0.12909798 0.1944318 -0.4696275 0.018563684 -0.0010738365 -0.025859904 0.0538372 0.44382122 0.13695629 0.09721381 0.2678429 0.13831788 0.0070433924 -0.41366217
off -0.128515 -0.5786532 0.10780545 -0.28701591 0.029206606 0.1638042 0.23980485 0.041007224 -0.34718412 -0.12813972 0.249845 0.256252 -0.06539768 -0.3504357 -0.03682176 -0.10164904 0.19992596 0.21804433 -0.5248112 0.027238209 -0.038957488 -0.013752931 0.07371108 0.47315744 0.14141154 0.07815844 0.32274476 0.11718062 0.030190805 -0.50906557
rate -0.13094728 -0.5340774 0.09139895 -0.2392016 0.010211181 0.14391065 0.25518534 0.09025365 -0.345297 -0.07335301 0.179038 0.23539788 -0.04579705 -0.25571573 -0.08402351 -0.046726514 0.12348674 0.19807996 -0.48190355 -0.019560108 -0.002755416 0.021590482 0.0590798 0.41241202 0.13210176 0.0641706 0.23803589 0.124407135 0.026944246 -0.39328268
level -0.12350914 -0.5311324 0.14748318 -0.24672017 -0.011271913 0.14844298 0.26545218 0.07294784 -0.3384185 -0.1234037 0.2374303 0.1866762 -0.09788794 -0.29967955 -0.046180483 -0.063937195 0.16398259 0.21545318 -0.47107056 0.038515236 -0.03439498 -0.02661669 0.050961606 0.4805163 0.13109528 0.057737254 0.30888954 0.17093499 0.05881266 -0.46539146
Dec -0.11422837 -0.6007061 0.09665911 -0.22633792 0.026628438 0.14648148 0.30111364 0.055192687 -0.32688352 -0.11956878 0.24214487 0.22554068 -0.061562937 -0.30264294 -0.06501023 -0.082830526 0.13882162 0.23024714 -0.50121677 0.03576746 -0.046331216 -0.03224844 0.10929203 0.47875148 0.15710492 0.12521653 0.2892213 0.1639352 0.033556998 -0.49961165
24 -0.11872726 -0.5962963 0.09354505 -0.2491969 -0.0048257993 0.19453552 0.28867728 0.09771845 -0.33461773 -0.11637804 0.2221684 0.27709913 -0.048403334 -0.36161575 -0.044164926 -0.039152734 0.20537104 0.195237 -0.52732366 0.015006584 -0.020686595 -0.0024554415 0.06831037 0.5181269 0.16909361 0.09601389 0.28511214 0.13621713 0.027823197 -0.46383557
internal -0.09444862 -0.56373763 0.08820026 -0.2300833 0.026183313 0.17486963 0.26217562 0.058657896 -0.2900424 -0.09330975 0.21772309 0.24128918 -0.091848746 -0.2813494 -0.02307581 -0.044114456 0.1699432 0.22039197 -0.47796237 -0.022603769 -0.017500691 0.009443716 0.05126177 0.45456114 0.14463003 0.055445306 0.28816062 0.17113037 0.0021313936 -0.42701766
view -0.11940767 -0.5310456 0.14110331 -0.22957341 -0.0017025028 0.11691113 0.19768049 0.046992324 -0.29290113 -0.08496129 0.16978309 0.1701233 -0.074966945 -0.28097203 -0.07060409 -0.07318187 0.15617216 0.19679278 -0.40088388 0.023388742 -0.02224726 0.011196011 0.09814579 0.41861436 0.117197186 0.0715644 0.22367752 0.1453866 0.039969906 -0.39483845
day -0.0674743 -0.59705234 0.14350688 -0.25105834 -0.03205074 0.1600511 0.26694265 0.095001064 -0.3621678 -0.07773675 0.23747629 0.23629454 -0.07181729 -0.2952935 -0.029865514 -0.090519816 0.12733401 0.23682734 -0.49716198 -0.035367023 -0.035641324 0.005437695 0.10979051 0.46075827 0.13074283 0.067795075 0.25959462 0.15099168 0.034045815 -0.48263103
operations -0.08952305 -0.56787014 0.10497698 -0.20622635 0.005611379 0.17373072 0.26193815 0.060508113 -0.2948138 -0.072985165 0.2335224 0.24350847 -0.051409446 -0.27590105 -0.031823654 -0.06078122 0.13382405 0.22712858 -0.45390293 -0.011432149 -0.023456946 -0.01362491 0.10361783 0.45137343 0.13490586 0.10362718 0.29601178 0.11583245 0.0083957305 -0.43560767
both -0.09870245 -0.53727704 0.11141233 -0.22836106 0.03306885 0.12514414 0.2026916 0.042472538 -0.3028939 -0.118396565 0.19476812 0.21669763 -0.073817626 -0.23957615 -0.0550909 -0.077071145 0.12660909 0.17608827 -0.4550201 -0.030212428 -0.031907197 0.0017944106 0.086587496 0.37916356 0.093894355 0.08396561 0.2501733 0.14162163 0.022768315 -0.3821011
such -0.0619145 -0.56945616 0.1342174 -0.20408809 0.0043244874 0.17093262 0.2229417 0.056275267 -0.34355187 -0.06407493 0.17484558 0.20166431 -0.07208299 -0.31297085 -0.024240948 -0.08596001 0.12753823 0.23073703 -0.4903788 0.036881287 -0.03486853 0.021147 0.07497342 0.43457124 0.096094735 0.05840342 0.29918712 0.15584041 0.033154853 -0.40400904
performance -0.076130584 -0.5233695 0.13111943 -0.25524887 0.03392153 0.11790446 0.23259337 0.0740253 -0.29712975 -0.12307817 0.21039054 0.2365141 -0.09976392 -0.2610855 -0.071900204 -0.02967468 0.13600495 0.22024387 -0.43444064 -0.024958372 -0.02217355 -0.020513033 0.09573344 0.4737897 0.10593333 0.08874844 0.25846484 0.10948686 0.041428458 -0.4649872
ensure -0.08510184 -0.5620701 0.14037688 -0.19236796 -0.002642021 0.13288452 0.20386656 0.09031344 -0.29976693 -0.06478295 0.2206484 0.20162964 -0.05675967 -0.2593966 -0.017113583 -0.038128734 0.1251911 0.17357497 -0.42823747 -0.016316697 -0.010311339 0.028729845 0.061120108 0.46171537 0.09559355 0.100335285 0.29364142 0.14742082 0.004805072 -0.38756076
Rs -0.022811335 -0.3156704 0.08267923 -0.10609267 -0.004801131 0.10006145 0.1245648 0.03646045 -0.18324995 -0.0688483 0.117536224 0.094456874 -0.029352764 -0.14243674 -0.014511833 -0.016570242 0.07424555 0.12924257 -0.28966445 -0.015574122 0.020420592 0.019292425 0.02254169 0.23586386 0.09892129 0.057824332 0.17711999 0.054838423 0.019851075 -0.2502413
resolutions -0.088011995 -0.526124 0.09267871 -0.200548 -0.004846541 0.18026805 0.23631513 0.101579666 -0.31550667 -0.06942219 0.17832437 0.1802619 -0.06992208 -0.3013159 -0.02119167 -0.040703066 0.13144273 0.21873583 -0.45680398 -0.024084749 -0.0058360393 -0.006076407 0.040150844 0.46299756 0.14647743 0.112178646 0.26786104 0.1541591 0.051640954 -0.44613105
transformation -0.057985596 -0.5187714 0.08380366 -0.17600903 -0.017437479 0.17523204 0.19380318 0.09888394 -0.3180886 -0.076232046 0.23428488 0.21746649 -0.06932615 -0.30010468 -0.07815129 -0.04101243 0.17385873 0.17674331 -0.41071668 0.031254582 -0.053998753 0.0075634806 0.04417667 0.4010678 0.11350776 0.0382387 0.2465659 0.10394147 0.002601854 -0.42326698
reforms -0.052075744 -0.4720108 0.11071369 -0.21346769 0.02172777 0.14425121 0.19199347 0.04367297 -0.28496766 -0.06450079 0.20534427 0.23527326 -0.046209484 -0.2729428 -0.020466292 -0.021987183 0.17251725 0.21306644 -0.45598978 0.021932712 -0.048864845 -0.016792884 0.036609963 0.41876945 0.11184135 0.05101619 0.2702119 0.15392584 0.041406292 -0.3672471
collected -0.09043214 -0.48683834 0.118650824 -0.20231105 -0.024446271 0.13848035 0.20181157 0.04903344 -0.2622845 -0.054018382 0.20087574 0.18563959 -0.03306325 -0.24304575 -0.023760919 -0.059419896 0.14219722 0.19015265 -0.43573654 0.022490824 -0.014584363 0.024486274 0.053673133 0.37363008 0.09064785 0.06370177 0.225878 0.10111896 0.037858646 -0.34759757
providing -0.074331276 -0.568215 0.09631668 -0.23010768 0.015501331 0.11896698 0.26666373 0.08287893 -0.32567957 -0.06187475 0.23731478 0.21780877 -0.052478455 -0.32970044 -0.0857051 -0.06869106 0.18639144 0.21213567 -0.44330117 -0.017010365 -0.008623291 0.00477146 0.06775223 0.43160775 0.13938849 0.04861061 0.29424995 0.1557061 0.026712317 -0.44376034
M -0.1072556 -0.548611 0.09487981 -0.2020702 -0.022621198 0.14433368 0.2138743 0.057304505 -0.32037982 -0.11418723 0.21380337 0.24525535 -0.049764063 -0.28853482 -0.08466976 -0.06656431 0.15085724 0.21272916 -0.4370918 0.006591674 -0.0036537207 0.02741779 0.087596975 0.48312286 0.11152741 0.070519835 0.30742824 0.1644106 0.04580015 -0.4404212
three -0.065136194 -0.5083597 0.12270995 -0.18545832 0.010575771 0.15206385 0.23669247 0.036879204 -0.31105018 -0.07867266 0.18032299 0.22879292 -0.03902149 -0.31227642 -0.07598445 -0.077577114 0.14588545 0.18456002 -0.45405027 0.00090934336 -0.005923641 0.037860665 0.053691514 0.395786 0.12859714 0.0541198 0.28573355 0.14351839 0.006869948 -0.43837243
best -0.10703114 -0.4420389 0.10829456 -0.17888103 -0.0012715423 0.13404061 0.21355295 0.056750424 -0.28947943 -0.082292296 0.18353593 0.16525556 -0.06503155 -0.2539403 -0.017918048 -0.06303885 0.1602402 0.15240005 -0.41638315 -0.015191086 -0.03389 0.002557892 0.0777531 0.36909926 0.13186036 0.0639793 0.2461266 0.114510074 0.018793708 -0.33307573
Tenor -0.09293699 -0.54494387 0.087386765 -0.2763656 -0.0019573497 0.15480557 0.2544025 0.07247991 -0.35847867 -0.12420678 0.26131213 0.22350079 -0.08308867 -0.32508254 -0.06780129 -0.09950447 0.1598881 0.2097205 -0.48104358 -0.014674401 -0.043920837 -0.0060989247 0.09205933 0.46460325 0.115024954 0.065117076 0.3164037 0.11877674 0.031279232 -0.4678508
He -0.09275867 -0.60003483 0.15245014 -0.23296008 0.0031579335 0.12613966 0.22301158 0.08261458 -0.3150149 -0.086693056 0.24131021 0.19895111 -0.07461701 -0.32159865 -0.06438629 -0.04767244 0.16646242 0.18249547 -0.47494516 0.028155327 -0.04334038 0.009595882 0.06332265 0.4922583 0.14297408 0.0930611 0.27843133 0.11097939 0.06534292 -0.45722935
increase -0.06452913 -0.50883913 0.08758424 -0.21450678 0.0062008775 0.13328843 0.27477387 0.049900215 -0.330605 -0.07924471 0.19068387 0.18475363 -0.0617439 -0.26890683 -0.07197699 -0.07480186 0.12565857 0.19647694 -0.46313107 0.034733422 -0.019286415 0.008147524 0.06019193 0.4557862 0.115932435 0.049239118 0.24146469 0.13581276 0.057097126 -0.40430924
Customs -0.115268946 -0.60374266 0.097290106 -0.219198 -0.03272969 0.17135513 0.26638082 0.071343325 -0.3773649 -0.0769185 0.22708577 0.19693312 -0.09589358 -0.2948956 -0.053829562 -0.09314048 0.17029807 0.2310263 -0.5338105 -0.015147217 -0.028849708 -0.03471133 0.07776091 0.4852564 0.16658327 0.08972514 0.29433137 0.16280237 0.023250123 -0.43813503
established -0.09288116 -0.52808464 0.07783461 -0.21596809 0.020931996 0.15171729 0.19806671 0.047752336 -0.32626727 -0.067858055 0.18091096 0.22518186 -0.083160274 -0.31294373 -0.07992206 -0.042100087 0.12416919 0.17283726 -0.47484562 -0.004474003 -0.03149193 0.004377341 0.09701245 0.42303544 0.09468461 0.07739802 0.27923524 0.11445028 0.015771773 -0.39723
NIBAF -0.06138641 -0.51274943 0.13793302 -0.23688605 -0.021174796 0.112928584 0.22427966 0.06321682 -0.27516147 -0.05848435 0.20261583 0.18157168 -0.08125873 -0.30186298 -0.049105767 -0.025064709 0.113518596 0.19276488 -0.39836738 -0.01204645 -0.04505069 -0.017614255 0.04593502 0.3713316 0.12688366 0.041807134 0.23589267 0.13524477 0.030947175 -0.416236
Karachi -0.12375603 -0.6083435 0.131315 -0.27419597 0.022921937 0.16819572 0.300725 0.07947072 -0.356611 -0.13406342 0.2640564 0.20475462 -0.07992813 -0.32601476 -0.09636075 -0.034289792 0.1971255 0.21051693 -0.5622826 -0.0076046125 -0.049251985 -0.009763285 0.10273916 0.5498439 0.11544347 0.101030864 0.32060048 0.15610363 0.045862313 -0.5286794
six -0.06337916 -0.44217423 0.101479374 -0.15749477 -0.01739728 0.1094299 0.18415761 0.026635354 -0.24757259 -0.057331774 0.13179635 0.14118363 -0.052277785 -0.19550848 -0.037714243 -0.016804527 0.095754616 0.18513621 -0.3766512 -0.023449708 -0.042738672 0.009818611 0.03854816 0.36427566 0.094721235 0.0700201 0.23446761 0.07898396 0.022732088 -0.34578755
2 -0.120395355 -0.51575965 0.1201342 -0.23753035 -0.008170163 0.12295054 0.22610897 0.07079031 -0.28277013 -0.0670745 0.19719708 0.22472216 -0.07872884 -0.31337306 -0.070006974 -0.08234772 0.167912 0.1700995 -0.48822257 -0.0060436474 0.00017356797 0.004243688 0.09321974 0.4692149 0.101477474 0.066138 0.2992661 0.14963205 0.052176118 -0.3938521
2022 -0.04886092 -0.48118132 0.10780881 -0.17779648 0.02724909 0.16366768 0.17866042 0.042804237 -0.2547232 -0.07481779 0.17921126 0.21470824 -0.040159922 -0.28156704 -0.060678005 -0.082347505 0.16334075 0.17999613 -0.41669416 0.012042286 0.00913353 0.032866195 0.0864527 0.39643645 0.11643907 0.09715171 0.23881523 0.12039727 -0.0034997517 -0.36228442
amended -0.12729767 -0.5105535 0.1023367 -0.22294247 0.0055242367 0.14204961 0.21055341 0.08488657 -0.3270828 -0.121185966 0.21852131 0.21225035 -0.049958114 -0.32026166 -0.052139793 -0.063165486 0.17646196 0.1656924 -0.4404359 -0.023735978 -0.050607998 0.013870051 0.063701265 0.42666012 0.104911596 0.0901854 0.232294 0.14817859 0.04585407 -0.42306057
line -0.07828553 -0.42597407 0.06967959 -0.21659055 0.009864098 0.15932353 0.1756796 0.033714235 -0.26735473 -0.11237928 0.1799117 0.21170728 -0.07941797 -0.2712231 -0.012572218 -0.053148407 0.11529033 0.15755403 -0.41707003 -0.01102719 -0.029346466 0.0035771492 0.06794026 0.3934487 0.12625422 0.056689773 0.19361953 0.12281639 0.00038714704 -0.323833
over -0.07685065 -0.5473602 0.14026833 -0.22717828 -0.016909424 0.14623636 0.26655912 0.09204725 -0.30992228 -0.07766682 0.19720897 0.24719055 -0.09180288 -0.3058912 -0.069230735 -0.02780583 0.13974407 0.1898636 -0.43602517 -0.028995331 -0.035087638 0.013667123 0.056032285 0.47128695 0.13040376 0.067897305 0.290237 0.16429326 0.033885274 -0.4060099
achieve -0.11287752 -0.5111994 0.14670295 -0.18352742 0.0075839534 0.12273133 0.2422607 0.0715437 -0.25929376 -0.08515162 0.2267164 0.17748967 -0.093449414 -0.2737311 -0.042012967 -0.05944106 0.16315964 0.16103692 -0.45904675 0.0302126 0.0045696064 -0.006965504 0.052742828 0.3995383 0.11448841 0.10165085 0.25822607 0.12474838 0.0195718 -0.4043759
or -0.12208036 -0.49652132 0.08766942 -0.22215964 -0.026449386 0.17640805 0.25668582 0.06696615 -0.293132 -0.09865684 0.23475835 0.19445793 -0.046696763 -0.29843363 -0.021227045 -0.027316274 0.17303434 0.1959593 -0.4563476 -0.024098108 0.010999538 -0.02668358 0.04407474 0.4465636 0.11423832 0.101150386 0.23693849 0.16263324 0.041500293 -0.44196704
etc -0.07801088 -0.5524712 0.138509 -0.20022158 -0.027068928 0.1712993 0.2610632 0.093718514 -0.33641714 -0.11634009 0.17583923 0.23331851 -0.08238801 -0.28105748 -0.038240474 -0.028469073 0.16390908 0.19411889 -0.4573896 0.013765633 -0.052764423 -0.014726155 0.06849626 0.45489955 0.12112338 0.044456895 0.26990998 0.15934962 0.053328294 -0.4101995
enforcement -0.11035518 -0.5748685 0.11674987 -0.2493131 -0.02528907 0.15342644 0.2568959 0.09297512 -0.31490064 -0.06795914 0.1927651 0.25444072 -0.08159731 -0.30703956 -0.06859309 -0.07623146 0.15649554 0.18506014 -0.4449104 0.023655618 -0.03212043 0.008231169 0.10171813 0.43924505 0.13952523 0.0852905 0.29506567 0.13670023 -0.0006104475 -0.41965288
Deputy -0.09026493 -0.5181756 0.11613571 -0.22981232 0.026628938 0.10352629 0.22233115 0.059530854 -0.29893607 -0.090618744 0.2159159 0.20057964 -0.08765664 -0.2700245 -0.09629569 -0.0641654 0.15873367 0.1964596 -0.44282526 0.014395683 0.0019772523 -0.023785276 0.052923054 0.3837419 0.08325194 0.07428138 0.2713668 0.13065638 0.039026685 -0.39589423
matters -0.08849217 -0.5272133 0.10636966 -0.18269923 0.018304635 0.14091128 0.2535937 0.07542457 -0.32098785 -0.06929717 0.22620769 0.16766411 -0.038767517 -0.30385712 -0.05046301 -0.038207073 0.121645056 0.15712456 -0.45260167 -0.027280016 -0.04924693 0.03475379 0.08040417 0.3791889 0.14395797 0.09871708 0.28659588 0.16126503 0.0007167846 -0.4025081
since -0.09113417 -0.5616101 0.14062046 -0.25934052 0.017797783 0.19111028 0.22505067 0.097556345 -0.32218313 -0.1087843 0.21339877 0.19998148 -0.10039668 -0.29333714 -0.070044 -0.02959381 0.1354501 0.1881103 -0.47345385 0.034391023 -0.0065815556 0.030270858 0.09707577 0.44890746 0.1582373 0.06415844 0.27703568 0.12295493 0.0555812 -0.4690684
World -0.08077109 -0.5256948 0.11751392 -0.23043124 -0.029740429 0.13205585 0.23370613 0.07434824 -0.31977147 -0.08063564 0.18677478 0.24630938 -0.077366956 -0.30610818 -0.0627879 -0.027111601 0.14753273 0.17869912 -0.4785495 -0.014957435 -0.028316496 0.03859456 0.04078916 0.43776488 0.116058215 0.09122609 0.23720476 0.16158363 0.018861488 -0.40032065
However -0.12597504 -0.5389719 0.099267654 -0.24086158 -0.0041271662 0.14036855 0.24678881 0.073695295 -0.30881387 -0.09979116 0.19831596 0.1987377 -0.043461725 -0.28696895 -0.025592126 -0.047407076 0.14066541 0.23416679 -0.5037102 0.017672537 -0.035336565 0.004897722 0.08511237 0.44763532 0.1144501 0.081645474 0.28252408 0.16113427 0.015698416 -0.427462
managing -0.09037024 -0.5093118 0.08594046 -0.19157463 0.034534022 0.16244617 0.24808615 0.0904523 -0.29074693 -0.09448208 0.21777976 0.21283607 -0.03913119 -0.24270363 -0.043552585 -0.043251142 0.111554384 0.20692734 -0.38311172 -0.018203614 -0.016589489 0.030475317 0.07861403 0.42259768 0.13543397 0.06845097 0.27376628 0.14096522 0.02251782 -0.38200182
order -0.058809742 -0.49857953 0.093280055 -0.22355 -0.014491564 0.15298645 0.23575628 0.04362832 -0.29462928 -0.05602553 0.21111988 0.22315468 -0.06689729 -0.2511143 -0.017124087 -0.04910535 0.13907902 0.20678452 -0.4703049 0.0329759 -0.0340865 0.03922134 0.0365031 0.4214541 0.14961119 0.061557487 0.2614704 0.14803706 0.0628007 -0.40983716
effective -0.11913988 -0.52218544 0.08576529 -0.22237898 0.02303624 0.12907346 0.23176208 0.038731966 -0.32653466 -0.08045694 0.18557972 0.21061556 -0.03897627 -0.32763126 -0.045734167 -0.05059899 0.14551255 0.1857834 -0.44626832 -2.8916977e-05 0.0023610308 -0.006392022 0.08409582 0.467909 0.1275857 0.094335645 0.2647277 0.16951321 0.03057576 -0.45508632
receipts -0.06784169 -0.48729888 0.0971591 -0.20546074 0.022935277 0.1440738 0.245712 0.10586103 -0.2815887 -0.11414462 0.20241548 0.24828161 -0.07009261 -0.3303981 -0.054569084 -0.080156155 0.15865736 0.20071752 -0.4631709 -0.011959413 0.010452146 0.020398395 0.0816682 0.44183022 0.15162249 0.067284465 0.2895523 0.13129328 0.006673069 -0.45310497
current -0.07753017 -0.391127 0.10154922 -0.20266074 0.007560356 0.10085484 0.17590322 0.08645322 -0.22165376 -0.07576458 0.17022842 0.16488704 -0.08535957 -0.21955445 -0.01555538 -0.030338224 0.12842837 0.14485815 -0.34698415 -0.02239863 -0.0034477292 0.010880267 0.05245766 0.3391077 0.10751746 0.06848253 0.21719234 0.13901654 0.04054039 -0.32617256
October -0.091966 -0.5021 0.07587612 -0.20487425 0.023689922 0.16269512 0.21769719 0.04851235 -0.26578644 -0.10083325 0.184516 0.21884276 -0.037043713 -0.26163128 -0.062091537 -0.037324555 0.16484597 0.20862217 -0.41950864 0.029442418 0.014629905 -0.03504295 0.10003032 0.3953492 0.09307183 0.09466516 0.27626154 0.09210268 0.057584718 -0.40138614
facilitate -0.11527882 -0.4977032 0.09806438 -0.19361064 0.029636169 0.17719004 0.25639954 0.03694805 -0.29062942 -0.119670115 0.19944264 0.24072361 -0.08070739 -0.27227315 -0.06930563 -0.0846235 0.17741519 0.20327228 -0.41870293 0.01606998 -0.016203208 0.01592619 0.042478334 0.4490763 0.10291434 0.09314205 0.24269569 0.13774456 0.045631748 -0.42121458
teams -0.10665996 -0.50857824 0.07360687 -0.16283152 -0.014051994 0.12834726 0.18690838 0.04558906 -0.29928154 -0.07180816 0.20937075 0.20538701 -0.025084618 -0.26156116 -0.016209278 -0.029886506 0.14893043 0.18265915 -0.44965807 -0.0036454992 -0.004224168 -0.028140137 0.07535397 0.3689155 0.14479531 0.073207684 0.24827844 0.10784611 0.054206245 -0.41377038
each -0.10906807 -0.49568218 0.10354301 -0.21654205 0.019308591 0.1583012 0.25932682 0.09611243 -0.2864271 -0.115832895 0.2150702 0.240248 -0.07780855 -0.28457576 -0.065652944 -0.0724969 0.1815876 0.18825193 -0.43831635 -0.016688379 -0.0010690086 -0.0095818415 0.05022989 0.4354363 0.15332234 0.060721032 0.26916403 0.12896751 0.011139894 -0.42992324
laws -0.11598994 -0.50815344 0.1065452 -0.23292753 0.0040749 0.1677119 0.27498153 0.03924421 -0.31337962 -0.09466861 0.19584033 0.20980719 -0.038508322 -0.3024563 -0.02157001 -0.059538808 0.15065369 0.21720023 -0.4295489 0.008353178 -0.02533736 0.021871632 0.055643346 0.45015875 0.1214082 0.059824757 0.28826284 0.12244765 0.040023327 -0.44758856
value -0.07337156 -0.45585862 0.12637688 -0.21853273 -0.020548537 0.1518155 0.22188392 0.064016834 -0.29382735 -0.08892077 0.14950477 0.18987092 -0.07758633 -0.25306734 -0.034269203 -0.044719607 0.11222337 0.17651713 -0.42754632 -0.006680747 -0.009818056 0.030855086 0.041667223 0.39484984 0.13345835 0.10299569 0.2578992 0.09608784 0.041960027 -0.34233418
measures -0.07455479 -0.4764535 0.10157222 -0.18654315 0.017902672 0.16618267 0.21010438 0.035453565 -0.2612096 -0.103365056 0.18521254 0.19836888 -0.0684851 -0.2800153 -0.046596006 -0.08629841 0.14644282 0.16589274 -0.4403385 0.018577239 -0.016237784 0.012538363 0.070318855 0.3674498 0.14612645 0.060923915 0.23690687 0.14998478 0.03211612 -0.37536192
sector -0.072939865 -0.4420614 0.121568866 -0.15408072 -0.00089853635 0.11321155 0.21762815 0.03177469 -0.23109339 -0.071215734 0.19453984 0.18951091 -0.06395651 -0.24353817 -0.061125353 -0.016909359 0.14496912 0.17674701 -0.4002027 -0.025520384 0.0062728017 0.0129752625 0.045877554 0.33960515 0.08766409 0.07028384 0.19870633 0.11381539 0.035465572 -0.3866164
enhancing -0.07569593 -0.4789828 0.084332205 -0.19124623 -0.030489186 0.113118306 0.18321162 0.036637697 -0.2610164 -0.07148043 0.20724708 0.21215329 -0.07987977 -0.2857389 -0.019813403 -0.032725167 0.15404543 0.15515245 -0.40994808 -0.008311228 -0.04754758 0.01987546 0.0492763 0.40074253 0.08658269 0.10432474 0.21439983 0.14207877 0.013932625 -0.3878077
any -0.05284677 -0.5042224 0.07077809 -0.17362107 -0.028509911 0.1469303 0.22482766 0.04188634 -0.26480657 -0.07584878 0.2101122 0.19695203 -0.0779847 -0.2673198 -0.024530938 -0.07138209 0.16431876 0.16387539 -0.419275 -0.01021103 -0.012295238 -0.029915273 0.07559134 0.37433138 0.13996637 0.058240175 0.20905551 0.13029657 0.05962609 -0.36224622
compliance -0.085571095 -0.43311283 0.069111064 -0.1937751 -0.012419549 0.1365698 0.17979656 0.033711266 -0.28256238 -0.06264608 0.18219127 0.21000537 -0.05042744 -0.22970217 -0.027436204 -0.031709094 0.11175439 0.17185171 -0.37566143 0.026677703 -0.04755797 -0.0002459882 0.06998255 0.34523296 0.07249087 0.07880013 0.22604178 0.11181584 0.0055896323 -0.32011333
steps -0.08891158 -0.50731647 0.11624824 -0.20487076 0.015515014 0.11287273 0.2358399 0.05235364 -0.2711515 -0.07035266 0.18639411 0.19909427 -0.082244486 -0.24992427 -0.016608475 -0.04947439 0.1826119 0.17837162 -0.43110466 -0.0081753265 -0.051464416 -0.010414237 0.0603988 0.40361097 0.100123204 0.07296134 0.26645082 0.10265051 0.0557357 -0.40293986
Minister -0.11476172 -0.5058393 0.08360467 -0.18394713 -0.0023384509 0.17090544 0.24358654 0.053935487 -0.32859975 -0.10381411 0.22737762 0.20042394 -0.059676517 -0.28126273 -0.08244586 -0.04472237 0.1191113 0.21651094 -0.46894905 0.030931627 -0.025276802 -0.0027556394 0.059137017 0.41577253 0.12407131 0.07766369 0.25348693 0.15042426 0.014675096 -0.43218517
instruments -0.09550362 -0.41651553 0.09835276 -0.19492482 0.020971257 0.09389877 0.21317518 0.09445328 -0.23021637 -0.09049618 0.18106382 0.19702405 -0.02801831 -0.25479856 -0.039661545 -0.06602623 0.11868054 0.16363804 -0.36555597 -0.016164897 0.0014134662 -0.013423486 0.045869466 0.3344308 0.13038549 0.08109916 0.2183957 0.14316113 0.03284682 -0.37963977
International -0.11434578 -0.5054679 0.084514655 -0.1775395 0.013447351 0.14610608 0.21969616 0.042220213 -0.26935235 -0.09925132 0.18364766 0.1743852 -0.07236779 -0.2942946 -0.038937226 -0.08401558 0.16349728 0.1590456 -0.44695857 0.008836511 -0.048090503 0.017826175 0.055195164 0.4084278 0.13529961 0.079674594 0.2515995 0.15038581 0.024863845 -0.37573656
focus -0.054884113 -0.49967974 0.10733648 -0.22440822 0.0017046117 0.15977767 0.20127884 0.046165362 -0.2636614 -0.057981465 0.20534074 0.165614 -0.03414259 -0.23124991 -0.064190894 -0.053439576 0.13285007 0.13797681 -0.41225365 0.03709421 -0.031563707 -0.028113449 0.05130147 0.3500174 0.113641165 0.092274055 0.2395933 0.10454345 0.063437335 -0.40713885
projects -0.092534065 -0.5187583 0.13816893 -0.2051564 -0.012975216 0.10385829 0.24802375 0.051822886 -0.30219242 -0.071628846 0.15881062 0.22079618 -0.04021134 -0.2798109 -0.06068764 -0.051225197 0.10586143 0.19139342 -0.400404 0.02757595 -0.048442326 0.0007588854 0.044082817 0.41834024 0.14272028 0.072517 0.2153622 0.13807742 0.02956474 -0.37680486
central -0.09284139 -0.4430144 0.08682328 -0.15341963 -0.021471892 0.107750766 0.19313055 0.04842018 -0.23542106 -0.07819393 0.15772332 0.1466174 -0.087897085 -0.2355073 -0.046666805 -0.07792053 0.15022773 0.18428707 -0.35287264 -0.0057133245 -0.016741248 0.029920947 0.038494416 0.33328462 0.06960642 0.081556104 0.19004048 0.116725184 0.053969074 -0.34200367
regulate -0.10461845 -0.3558403 0.105180204 -0.18075788 0.01720719 0.13181236 0.18714172 0.03391012 -0.19859572 -0.08743851 0.12084563 0.16495712 -0.072828345 -0.2110501 -0.055904876 -0.06648715 0.102000855 0.143398 -0.3179716 0.03322136 -0.0017262346 -0.027633613 0.018669436 0.30347326 0.07600227 0.029017625 0.2230925 0.11419602 -0.0061311848 -0.27278903
foster -0.07059649 -0.40901414 0.0848325 -0.13598904 -0.013483833 0.09354717 0.16428025 0.0691282 -0.2040409 -0.09625995 0.11705625 0.15314686 -0.04231784 -0.1999498 -0.025749514 -0.044177208 0.10430345 0.15495081 -0.3245521 0.024822596 -0.014289629 0.03310518 0.03382235 0.32000157 0.09788318 0.031149296 0.22816642 0.11702725 0.039215416 -0.30750307
field -0.054004926 -0.5008379 0.11069184 -0.19792758 0.02047617 0.16727361 0.23941766 0.075323835 -0.31131294 -0.10466631 0.16925739 0.19782451 -0.07406694 -0.27323925 -0.051629882 -0.053231232 0.16454154 0.17080297 -0.41482556 0.026031746 -0.0009789688 0.009200658 0.06698915 0.42561737 0.08945945 0.060580872 0.2672841 0.1290822 0.044802427 -0.4234047
Taxes -0.07082728 -0.5239767 0.13826577 -0.22265396 -0.016679829 0.14864698 0.2336142 0.059692003 -0.31450424 -0.054480474 0.16844763 0.22225346 -0.0770327 -0.24861576 -0.03863282 -0.055433173 0.13974707 0.17982705 -0.46663845 -0.0038336546 -0.0008517563 -0.0294809 0.07861015 0.4370841 0.14469717 0.0683785 0.27958864 0.09906431 0.036378417 -0.38568535
institutions -0.06007604 -0.448236 0.08396033 -0.206677 0.0064418176 0.13525642 0.166632 0.07855411 -0.26118863 -0.062673755 0.18274839 0.17842317 -0.058192145 -0.2718415 -0.05931009 -0.04339041 0.08680727 0.19167906 -0.34852716 0.003838047 0.009752573 -0.0097702155 0.060017474 0.35107243 0.12186956 0.07103876 0.20651653 0.09279851 -0.0021069748 -0.31493527
objective -0.05834743 -0.44407594 0.12284632 -0.22334696 0.03498589 0.101280525 0.20963751 0.059165042 -0.2433643 -0.11220555 0.18691686 0.16229063 -0.061574716 -0.22903699 -0.078170285 -0.016955884 0.10167477 0.19602412 -0.43043664 -0.020925028 -0.048378017 0.023350697 0.057194907 0.3844775 0.07686073 0.10141574 0.24444392 0.10005066 0.015688524 -0.33910763
purpose -0.06282096 -0.47998533 0.10967613 -0.20208362 0.012359718 0.15261026 0.18894923 0.05451436 -0.24186186 -0.09546841 0.18569985 0.19137324 -0.08939483 -0.25614733 -0.01564624 -0.043291472 0.15898836 0.1597395 -0.35350204 -0.023449147 -0.0020313405 -0.030113235 0.06786675 0.39404893 0.094307974 0.08498301 0.19011778 0.108167306 0.04557813 -0.372
different -0.0642791 -0.53739846 0.1055078 -0.17440666 0.02913305 0.14549422 0.26277184 0.03183521 -0.31152958 -0.08509557 0.18886918 0.2222475 -0.04153149 -0.29903466 -0.053961217 -0.023174899 0.12751979 0.15552492 -0.4351786 -0.0201724 -0.024008624 0.006302373 0.039174877 0.41884404 0.099702336 0.0605031 0.26814315 0.14329015 0.019211387 -0.37222642
based -0.0801638 -0.46303087 0.11713322 -0.18250406 0.039780848 0.119175315 0.21981964 0.05145401 -0.2716881 -0.108164035 0.18150096 0.2190694 -0.074679226 -0.25491765 -0.044296343 -0.04912352 0.13446885 0.15289465 -0.38342467 0.02897566 -0.056102507 -0.020296538 0.071461484 0.39785057 0.098642394 0.099013165 0.21609768 0.11159969 0.054150768 -0.38991916
A -0.10726016 -0.48666182 0.14377296 -0.22859605 -0.019414952 0.13860266 0.26453054 0.061611686 -0.28748897 -0.09423275 0.2148463 0.20412922 -0.04733179 -0.25341883 -0.08615055 -0.036315434 0.12378868 0.16042319 -0.43216047 0.013773257 0.00132346 -0.029025357 0.09873773 0.39626756 0.09669323 0.084234186 0.24710001 0.13988307 0.014558884 -0.43638036
e -0.06464962 -0.513585 0.13717425 -0.21799082 -0.0015082855 0.15526968 0.25320214 0.06286091 -0.33013356 -0.09488033 0.21814783 0.22388554 -0.08781425 -0.26632878 -0.020541234 -0.08416596 0.14678812 0.19060269 -0.4557422 -0.016201563 -0.0038545597 -0.012765601 0.050582655 0.42332998 0.14882244 0.097833626 0.23377001 0.11787589 0.06176235 -0.40306202
held -0.10433078 -0.5568883 0.100221224 -0.19365998 0.013013903 0.12529291 0.2571483 0.06384433 -0.30794355 -0.109615415 0.21382912 0.21041024 -0.061414305 -0.30220926 -0.061480682 -0.062331636 0.13338909 0.18553028 -0.42343247 0.012576722 -0.0025381418 0.016263196 0.07872787 0.43751496 0.1512708 0.0967967 0.23824406 0.15782021 0.013034245 -0.42002448
about -0.118592925 -0.5449662 0.10382016 -0.19603555 0.00920211 0.1404657 0.21386643 0.088707656 -0.2743318 -0.062152512 0.19645019 0.17930846 -0.03771674 -0.29088897 -0.04299387 -0.041135255 0.1822521 0.18523581 -0.45869535 0.00018838322 -0.011978429 0.0021006013 0.060249776 0.4552044 0.12770306 0.057659738 0.29229498 0.106538154 0.02497621 -0.39283377
Fiscal -0.10898801 -0.51022464 0.09612265 -0.25175315 -0.029768214 0.15251869 0.2614484 0.090514906 -0.29777324 -0.075237006 0.1971398 0.18547247 -0.032484237 -0.31412855 -0.029808199 -0.06980916 0.14588001 0.18632512 -0.4248907 -0.015579683 -0.015354537 0.0067950413 0.072185054 0.4132882 0.0956087 0.05805053 0.24681456 0.1324064 0.012232573 -0.39409631
status -0.073924765 -0.50275135 0.09282926 -0.21795969 -0.019714436 0.13615488 0.21365365 0.09582744 -0.27066126 -0.08402419 0.21958892 0.1714311 -0.092928626 -0.2632267 -0.07000555 -0.066130474 0.14433633 0.15347531 -0.42631325 0.01572165 -0.015288161 -0.0011961734 0.06279091 0.42715636 0.12024342 0.06734017 0.22804457 0.097715944 0.026510572 -0.3956062
investment -0.12020571 -0.5072779 0.093461856 -0.21890335 0.0032133234 0.13328256 0.2528521 0.07972925 -0.26433638 -0.07133001 0.20803005 0.20809728 -0.05115288 -0.27909437 -0.019574165 -0.07981877 0.14991601 0.19944994 -0.400165 -0.0108969975 0.0058146752 0.021952016 0.046750277 0.4463569 0.10166524 0.1008466 0.22400336 0.11243129 0.0539881 -0.40099633
job -0.10918076 -0.5188696 0.08395514 -0.19054991 0.032420527 0.1357705 0.25457737 0.062271077 -0.2862404 -0.08186698 0.16657914 0.20974909 -0.08090529 -0.25993708 -0.07370103 -0.028689109 0.14945243 0.21193263 -0.42678502 0.035546258 -0.020897167 0.0066218735 0.075889386 0.41397965 0.10922597 0.09583084 0.28598094 0.15257002 0.042720392 -0.39400324
banks -0.08683977 -0.49216533 0.09487428 -0.22876225 -0.01962543 0.15423408 0.20176916 0.09413181 -0.30927593 -0.0889376 0.16684094 0.22353397 -0.042196523 -0.2704723 -0.05249317 -0.07237683 0.12234378 0.21537371 -0.45430762 0.022144148 -0.010699535 0.030699352 0.07468575 0.41311103 0.12680754 0.08762414 0.22017562 0.1075834 0.033623133 -0.39199907
b -0.059258018 -0.47829208 0.11386437 -0.17850515 0.009761798 0.16311677 0.2537279 0.0661205 -0.26785815 -0.11451235 0.20653349 0.18208796 -0.048315864 -0.26261368 -0.02008923 -0.039157398 0.18112707 0.17719357 -0.42359006 -0.024306232 -0.040271673 0.008624387 0.098767705 0.4265555 0.106035165 0.065830745 0.2192229 0.14253096 0.04463321 -0.37555572
last -0.032263856 -0.41297174 0.053997543 -0.12662418 0.020622974 0.07272059 0.19757444 0.03441388 -0.21686134 -0.056596108 0.1154438 0.17125769 -0.06973391 -0.22956286 -0.017328857 -0.01918059 0.13545674 0.1533727 -0.32304993 -0.022829395 -0.01957921 -0.0010209574 0.06057951 0.3420191 0.11483752 0.055507857 0.1737515 0.120654084 0.056403223 -0.32485446
Direct -0.05248241 -0.37634322 0.08637158 -0.15260744 -0.020229593 0.076574296 0.15793094 0.02402729 -0.26396412 -0.05357626 0.13275933 0.17967455 -0.046044096 -0.22764623 -0.071113 -0.06169313 0.12508465 0.1787547 -0.35237923 0.029092062 -0.031081162 0.036438245 0.04814651 0.3057832 0.10602855 0.063970625 0.22774751 0.07612004 0.037316915 -0.3081543
Release -0.042054504 -0.48733443 0.0936528 -0.23183502 0.009678149 0.10480648 0.24441022 0.098107465 -0.26175565 -0.048436835 0.16597755 0.22889704 -0.089285396 -0.23896568 -0.06311579 -0.053806435 0.13995542 0.17646487 -0.39491674 0.010086697 -0.056416128 0.025032632 0.073484115 0.36977324 0.1332092 0.07960974 0.25797695 0.11713384 0.060018357 -0.3743552
Press -0.07718197 -0.48999375 0.09903589 -0.18848698 -0.027881777 0.0940418 0.21891376 0.06844728 -0.28359604 -0.09170371 0.20039116 0.22648059 -0.0915061 -0.2809669 -0.048120826 -0.0692243 0.13749266 0.14494145 -0.43105873 -0.013022982 -0.011872473 0.024753306 0.022485223 0.34402332 0.08815852 0.086603664 0.20417295 0.12044524 0.06964111 -0.41025022
import -0.09200187 -0.4377605 0.12765984 -0.19495696 -0.020852456 0.09869683 0.19744751 0.06389986 -0.249714 -0.08353784 0.21173123 0.15810816 -0.04057249 -0.23862775 -0.066850044 -0.029243927 0.11126756 0.18643004 -0.43854126 0.0054238318 -0.026816886 0.018483581 0.077467576 0.35177544 0.09570208 0.051108293 0.2104441 0.12615553 0.05527964 -0.3954522
robust -0.050465602 -0.47948202 0.078683235 -0.2015838 0.015331188 0.15823545 0.21755195 0.09518252 -0.3003662 -0.114075445 0.15859346 0.21026433 -0.07569872 -0.30023554 -0.06923406 -0.051029958 0.16830027 0.16950834 -0.40761212 0.0035476421 0.010415256 0.01641814 0.040530536 0.36553735 0.09859207 0.08394915 0.26594815 0.14723596 0.045789283 -0.36322683
Sales -0.06314375 -0.51331514 0.15744527 -0.19922753 -0.0056179594 0.1214215 0.21105824 0.045397986 -0.3158524 -0.052415248 0.1783553 0.18073297 -0.056693286 -0.26100442 -0.03113796 -0.08256416 0.19132599 0.1822308 -0.44929096 -0.025844999 -0.018338885 -0.024591047 0.077847965 0.46937436 0.11687469 0.075865306 0.27882794 0.15270749 0.0019828824 -0.4016517
issued -0.087248884 -0.47935554 0.10149877 -0.23261002 0.0018051135 0.099549316 0.24940786 0.034310743 -0.29029897 -0.059041828 0.17412606 0.16223747 -0.07684666 -0.2979037 -0.026923213 -0.086888984 0.12869523 0.1518242 -0.39895844 -0.009254046 -0.039656833 0.0052291206 0.06855052 0.43765625 0.10893889 0.057692524 0.22892489 0.096392445 0.06862454 -0.36557877
dedicated -0.068822205 -0.5193201 0.10090587 -0.18573909 -0.016491542 0.16930276 0.23969625 0.05453846 -0.3166205 -0.050645642 0.19369136 0.18444273 -0.05082408 -0.30080196 -0.07957532 -0.032429975 0.14438969 0.19035958 -0.39450967 -0.009240514 -0.038860075 -0.034821454 0.09466868 0.3929112 0.13323967 0.08023375 0.21859214 0.12377508 0.06565492 -0.41246444
responsible -0.06966797 -0.4194901 0.11994976 -0.17655586 -0.012120419 0.08671671 0.17556432 0.0625637 -0.24606065 -0.06797716 0.19341947 0.19029164 -0.031341463 -0.20799595 -0.026923118 -0.049531624 0.12165476 0.17131765 -0.38192776 0.010200873 -0.028117903 0.035327576 0.07088745 0.31926122 0.10209458 0.04342265 0.17597596 0.10420508 0.028532961 -0.35434717
